digraph Tree {
node [shape=box, style="filled", color="black"] ;
0 [label="numbers_count <= 22.5\ngini = 0.482\nsamples = 42150\nvalue = [28287, 3425, 10438]\nclass = comment", fillcolor="#e5813990"] ;
1 [label="likes <= 0.044\ngini = 0.458\nsamples = 39422\nvalue = [27537, 3369, 8516]\nclass = comment", fillcolor="#e581399d"] ;
0 -> 1 [labeldistance=2.5, labelangle=45, headlabel="True"] ;
2 [label="numbers_count <= 7.5\ngini = 0.424\nsamples = 31379\nvalue = [22357, 836, 8186]\nclass = comment", fillcolor="#e581399c"] ;
1 -> 2 ;
3 [label="numbers% <= 0.206\ngini = 0.406\nsamples = 27771\nvalue = [20327, 774, 6670]\nclass = comment", fillcolor="#e58139a5"] ;
2 -> 3 ;
4 [label="numbers_count <= 3.5\ngini = 0.41\nsamples = 27298\nvalue = [19873, 770, 6655]\nclass = comment", fillcolor="#e58139a3"] ;
3 -> 4 ;
5 [label="numbers_count <= 1.5\ngini = 0.403\nsamples = 26430\nvalue = [19426, 727, 6277]\nclass = comment", fillcolor="#e58139a6"] ;
4 -> 5 ;
6 [label="likes <= 0.044\ngini = 0.4\nsamples = 25845\nvalue = [19023, 639, 6183]\nclass = comment", fillcolor="#e58139a7"] ;
5 -> 6 ;
7 [label="likes <= 0.041\ngini = 0.4\nsamples = 25827\nvalue = [19014, 638, 6175]\nclass = comment", fillcolor="#e58139a7"] ;
6 -> 7 ;
8 [label="likes <= 0.037\ngini = 0.4\nsamples = 25772\nvalue = [18968, 637, 6167]\nclass = comment", fillcolor="#e58139a7"] ;
7 -> 8 ;
9 [label="likes <= 0.037\ngini = 0.4\nsamples = 25704\nvalue = [18925, 637, 6142]\nclass = comment", fillcolor="#e58139a7"] ;
8 -> 9 ;
10 [label="likes <= 0.007\ngini = 0.4\nsamples = 25690\nvalue = [18911, 637, 6142]\nclass = comment", fillcolor="#e58139a7"] ;
9 -> 10 ;
11 [label="likes <= 0.005\ngini = 0.399\nsamples = 24808\nvalue = [18288, 602, 5918]\nclass = comment", fillcolor="#e58139a7"] ;
10 -> 11 ;
12 [label="likes <= 0.005\ngini = 0.399\nsamples = 24771\nvalue = [18254, 602, 5915]\nclass = comment", fillcolor="#e58139a7"] ;
11 -> 12 ;
13 [label="numbers% <= 0.015\ngini = 0.399\nsamples = 24767\nvalue = [18253, 602, 5912]\nclass = comment", fillcolor="#e58139a7"] ;
12 -> 13 ;
14 [label="numbers% <= 0.015\ngini = 0.399\nsamples = 24729\nvalue = [18220, 601, 5908]\nclass = comment", fillcolor="#e58139a7"] ;
13 -> 14 ;
15 [label="likes <= 0.004\ngini = 0.399\nsamples = 24726\nvalue = [18220, 601, 5905]\nclass = comment", fillcolor="#e58139a7"] ;
14 -> 15 ;
16 [label="likes <= 0.004\ngini = 0.399\nsamples = 24715\nvalue = [18210, 600, 5905]\nclass = comment", fillcolor="#e58139a7"] ;
15 -> 16 ;
17 [label="likes <= 0.003\ngini = 0.399\nsamples = 24714\nvalue = [18210, 600, 5904]\nclass = comment", fillcolor="#e58139a7"] ;
16 -> 17 ;
18 [label="likes <= 0.003\ngini = 0.399\nsamples = 24710\nvalue = [18206, 600, 5904]\nclass = comment", fillcolor="#e58139a7"] ;
17 -> 18 ;
19 [label="likes <= 0.003\ngini = 0.399\nsamples = 24709\nvalue = [18206, 600, 5903]\nclass = comment", fillcolor="#e58139a7"] ;
18 -> 19 ;
20 [label="likes <= 0.002\ngini = 0.399\nsamples = 24706\nvalue = [18203, 600, 5903]\nclass = comment", fillcolor="#e58139a7"] ;
19 -> 20 ;
21 [label="numbers% <= 0.013\ngini = 0.399\nsamples = 24705\nvalue = [18203, 600, 5902]\nclass = comment", fillcolor="#e58139a7"] ;
20 -> 21 ;
22 [label="numbers% <= 0.012\ngini = 0.399\nsamples = 24702\nvalue = [18200, 600, 5902]\nclass = comment", fillcolor="#e58139a7"] ;
21 -> 22 ;
23 [label="numbers% <= 0.004\ngini = 0.399\nsamples = 24697\nvalue = [18198, 600, 5899]\nclass = comment", fillcolor="#e58139a7"] ;
22 -> 23 ;
24 [label="numbers_count <= 0.5\ngini = 0.4\nsamples = 24677\nvalue = [18180, 600, 5897]\nclass = comment", fillcolor="#e58139a7"] ;
23 -> 24 ;
25 [label="likes <= 0.001\ngini = 0.4\nsamples = 24676\nvalue = [18180, 600, 5896]\nclass = comment", fillcolor="#e58139a7"] ;
24 -> 25 ;
26 [label="gini = 0.4\nsamples = 24672\nvalue = [18176, 600, 5896]\nclass = comment", fillcolor="#e58139a7"] ;
25 -> 26 ;
27 [label="gini = 0.0\nsamples = 4\nvalue = [4, 0, 0]\nclass = comment", fillcolor="#e58139ff"] ;
25 -> 27 ;
28 [label="gini = 0.0\nsamples = 1\nvalue = [0, 0, 1]\nclass = post", fillcolor="#8139e5ff"] ;
24 -> 28 ;
29 [label="numbers% <= 0.009\ngini = 0.18\nsamples = 20\nvalue = [18, 0, 2]\nclass = comment", fillcolor="#e58139e3"] ;
23 -> 29 ;
30 [label="gini = 0.0\nsamples = 12\nvalue = [12, 0, 0]\nclass = comment", fillcolor="#e58139ff"] ;
29 -> 30 ;
31 [label="numbers% <= 0.01\ngini = 0.375\nsamples = 8\nvalue = [6, 0, 2]\nclass = comment", fillcolor="#e58139aa"] ;
29 -> 31 ;
32 [label="gini = 0.0\nsamples = 1\nvalue = [0, 0, 1]\nclass = post", fillcolor="#8139e5ff"] ;
31 -> 32 ;
33 [label="numbers% <= 0.012\ngini = 0.245\nsamples = 7\nvalue = [6, 0, 1]\nclass = comment", fillcolor="#e58139d4"] ;
31 -> 33 ;
34 [label="gini = 0.0\nsamples = 4\nvalue = [4, 0, 0]\nclass = comment", fillcolor="#e58139ff"] ;
33 -> 34 ;
35 [label="numbers% <= 0.012\ngini = 0.444\nsamples = 3\nvalue = [2, 0, 1]\nclass = comment", fillcolor="#e581397f"] ;
33 -> 35 ;
36 [label="gini = 0.0\nsamples = 1\nvalue = [0, 0, 1]\nclass = post", fillcolor="#8139e5ff"] ;
35 -> 36 ;
37 [label="gini = 0.0\nsamples = 2\nvalue = [2, 0, 0]\nclass = comment", fillcolor="#e58139ff"] ;
35 -> 37 ;
38 [label="numbers% <= 0.013\ngini = 0.48\nsamples = 5\nvalue = [2, 0, 3]\nclass = post", fillcolor="#8139e555"] ;
22 -> 38 ;
39 [label="numbers% <= 0.013\ngini = 0.5\nsamples = 4\nvalue = [2, 0, 2]\nclass = comment", fillcolor="#e5813900"] ;
38 -> 39 ;
40 [label="numbers% <= 0.012\ngini = 0.444\nsamples = 3\nvalue = [1, 0, 2]\nclass = post", fillcolor="#8139e57f"] ;
39 -> 40 ;
41 [label="gini = 0.5\nsamples = 2\nvalue = [1, 0, 1]\nclass = comment", fillcolor="#e5813900"] ;
40 -> 41 ;
42 [label="gini = 0.0\nsamples = 1\nvalue = [0, 0, 1]\nclass = post", fillcolor="#8139e5ff"] ;
40 -> 42 ;
43 [label="gini = 0.0\nsamples = 1\nvalue = [1, 0, 0]\nclass = comment", fillcolor="#e58139ff"] ;
39 -> 43 ;
44 [label="gini = 0.0\nsamples = 1\nvalue = [0, 0, 1]\nclass = post", fillcolor="#8139e5ff"] ;
38 -> 44 ;
45 [label="gini = 0.0\nsamples = 3\nvalue = [3, 0, 0]\nclass = comment", fillcolor="#e58139ff"] ;
21 -> 45 ;
46 [label="gini = 0.0\nsamples = 1\nvalue = [0, 0, 1]\nclass = post", fillcolor="#8139e5ff"] ;
20 -> 46 ;
47 [label="gini = 0.0\nsamples = 3\nvalue = [3, 0, 0]\nclass = comment", fillcolor="#e58139ff"] ;
19 -> 47 ;
48 [label="gini = 0.0\nsamples = 1\nvalue = [0, 0, 1]\nclass = post", fillcolor="#8139e5ff"] ;
18 -> 48 ;
49 [label="gini = 0.0\nsamples = 4\nvalue = [4, 0, 0]\nclass = comment", fillcolor="#e58139ff"] ;
17 -> 49 ;
50 [label="gini = 0.0\nsamples = 1\nvalue = [0, 0, 1]\nclass = post", fillcolor="#8139e5ff"] ;
16 -> 50 ;
51 [label="likes <= 0.004\ngini = 0.165\nsamples = 11\nvalue = [10, 1, 0]\nclass = comment", fillcolor="#e58139e6"] ;
15 -> 51 ;
52 [label="likes <= 0.004\ngini = 0.32\nsamples = 5\nvalue = [4, 1, 0]\nclass = comment", fillcolor="#e58139bf"] ;
51 -> 52 ;
53 [label="gini = 0.0\nsamples = 4\nvalue = [4, 0, 0]\nclass = comment", fillcolor="#e58139ff"] ;
52 -> 53 ;
54 [label="gini = 0.0\nsamples = 1\nvalue = [0, 1, 0]\nclass = comment_to_comment", fillcolor="#39e581ff"] ;
52 -> 54 ;
55 [label="gini = 0.0\nsamples = 6\nvalue = [6, 0, 0]\nclass = comment", fillcolor="#e58139ff"] ;
51 -> 55 ;
56 [label="gini = 0.0\nsamples = 3\nvalue = [0, 0, 3]\nclass = post", fillcolor="#8139e5ff"] ;
14 -> 56 ;
57 [label="numbers% <= 0.045\ngini = 0.234\nsamples = 38\nvalue = [33, 1, 4]\nclass = comment", fillcolor="#e58139da"] ;
13 -> 57 ;
58 [label="numbers% <= 0.023\ngini = 0.095\nsamples = 20\nvalue = [19, 0, 1]\nclass = comment", fillcolor="#e58139f2"] ;
57 -> 58 ;
59 [label="numbers% <= 0.022\ngini = 0.18\nsamples = 10\nvalue = [9, 0, 1]\nclass = comment", fillcolor="#e58139e3"] ;
58 -> 59 ;
60 [label="gini = 0.0\nsamples = 8\nvalue = [8, 0, 0]\nclass = comment", fillcolor="#e58139ff"] ;
59 -> 60 ;
61 [label="gini = 0.5\nsamples = 2\nvalue = [1, 0, 1]\nclass = comment", fillcolor="#e5813900"] ;
59 -> 61 ;
62 [label="gini = 0.0\nsamples = 10\nvalue = [10, 0, 0]\nclass = comment", fillcolor="#e58139ff"] ;
58 -> 62 ;
63 [label="numbers% <= 0.05\ngini = 0.364\nsamples = 18\nvalue = [14, 1, 3]\nclass = comment", fillcolor="#e58139bb"] ;
57 -> 63 ;
64 [label="gini = 0.0\nsamples = 1\nvalue = [0, 0, 1]\nclass = post", fillcolor="#8139e5ff"] ;
63 -> 64 ;
65 [label="numbers% <= 0.067\ngini = 0.304\nsamples = 17\nvalue = [14, 1, 2]\nclass = comment", fillcolor="#e58139cc"] ;
63 -> 65 ;
66 [label="numbers% <= 0.057\ngini = 0.408\nsamples = 7\nvalue = [5, 0, 2]\nclass = comment", fillcolor="#e5813999"] ;
65 -> 66 ;
67 [label="gini = 0.0\nsamples = 4\nvalue = [4, 0, 0]\nclass = comment", fillcolor="#e58139ff"] ;
66 -> 67 ;
68 [label="numbers% <= 0.061\ngini = 0.444\nsamples = 3\nvalue = [1, 0, 2]\nclass = post", fillcolor="#8139e57f"] ;
66 -> 68 ;
69 [label="gini = 0.5\nsamples = 2\nvalue = [1, 0, 1]\nclass = comment", fillcolor="#e5813900"] ;
68 -> 69 ;
70 [label="gini = 0.0\nsamples = 1\nvalue = [0, 0, 1]\nclass = post", fillcolor="#8139e5ff"] ;
68 -> 70 ;
71 [label="numbers% <= 0.112\ngini = 0.18\nsamples = 10\nvalue = [9, 1, 0]\nclass = comment", fillcolor="#e58139e3"] ;
65 -> 71 ;
72 [label="numbers% <= 0.095\ngini = 0.32\nsamples = 5\nvalue = [4, 1, 0]\nclass = comment", fillcolor="#e58139bf"] ;
71 -> 72 ;
73 [label="gini = 0.0\nsamples = 3\nvalue = [3, 0, 0]\nclass = comment", fillcolor="#e58139ff"] ;
72 -> 73 ;
74 [label="gini = 0.5\nsamples = 2\nvalue = [1, 1, 0]\nclass = comment", fillcolor="#e5813900"] ;
72 -> 74 ;
75 [label="gini = 0.0\nsamples = 5\nvalue = [5, 0, 0]\nclass = comment", fillcolor="#e58139ff"] ;
71 -> 75 ;
76 [label="likes <= 0.005\ngini = 0.375\nsamples = 4\nvalue = [1, 0, 3]\nclass = post", fillcolor="#8139e5aa"] ;
12 -> 76 ;
77 [label="gini = 0.0\nsamples = 2\nvalue = [0, 0, 2]\nclass = post", fillcolor="#8139e5ff"] ;
76 -> 77 ;
78 [label="likes <= 0.005\ngini = 0.5\nsamples = 2\nvalue = [1, 0, 1]\nclass = comment", fillcolor="#e5813900"] ;
76 -> 78 ;
79 [label="gini = 0.0\nsamples = 1\nvalue = [1, 0, 0]\nclass = comment", fillcolor="#e58139ff"] ;
78 -> 79 ;
80 [label="gini = 0.0\nsamples = 1\nvalue = [0, 0, 1]\nclass = post", fillcolor="#8139e5ff"] ;
78 -> 80 ;
81 [label="numbers_count <= 0.5\ngini = 0.149\nsamples = 37\nvalue = [34, 0, 3]\nclass = comment", fillcolor="#e58139e9"] ;
11 -> 81 ;
82 [label="likes <= 0.006\ngini = 0.105\nsamples = 36\nvalue = [34, 0, 2]\nclass = comment", fillcolor="#e58139f0"] ;
81 -> 82 ;
83 [label="gini = 0.0\nsamples = 21\nvalue = [21, 0, 0]\nclass = comment", fillcolor="#e58139ff"] ;
82 -> 83 ;
84 [label="likes <= 0.007\ngini = 0.231\nsamples = 15\nvalue = [13, 0, 2]\nclass = comment", fillcolor="#e58139d8"] ;
82 -> 84 ;
85 [label="likes <= 0.007\ngini = 0.444\nsamples = 6\nvalue = [4, 0, 2]\nclass = comment", fillcolor="#e581397f"] ;
84 -> 85 ;
86 [label="likes <= 0.006\ngini = 0.32\nsamples = 5\nvalue = [4, 0, 1]\nclass = comment", fillcolor="#e58139bf"] ;
85 -> 86 ;
87 [label="gini = 0.5\nsamples = 2\nvalue = [1, 0, 1]\nclass = comment", fillcolor="#e5813900"] ;
86 -> 87 ;
88 [label="gini = 0.0\nsamples = 3\nvalue = [3, 0, 0]\nclass = comment", fillcolor="#e58139ff"] ;
86 -> 88 ;
89 [label="gini = 0.0\nsamples = 1\nvalue = [0, 0, 1]\nclass = post", fillcolor="#8139e5ff"] ;
85 -> 89 ;
90 [label="gini = 0.0\nsamples = 9\nvalue = [9, 0, 0]\nclass = comment", fillcolor="#e58139ff"] ;
84 -> 90 ;
91 [label="gini = 0.0\nsamples = 1\nvalue = [0, 0, 1]\nclass = post", fillcolor="#8139e5ff"] ;
81 -> 91 ;
92 [label="numbers% <= 0.007\ngini = 0.435\nsamples = 882\nvalue = [623, 35, 224]\nclass = comment", fillcolor="#e581399b"] ;
10 -> 92 ;
93 [label="likes <= 0.008\ngini = 0.429\nsamples = 867\nvalue = [618, 35, 214]\nclass = comment", fillcolor="#e581399e"] ;
92 -> 93 ;
94 [label="likes <= 0.008\ngini = 0.599\nsamples = 31\nvalue = [15, 4, 12]\nclass = comment", fillcolor="#e5813928"] ;
93 -> 94 ;
95 [label="likes <= 0.007\ngini = 0.566\nsamples = 22\nvalue = [13, 4, 5]\nclass = comment", fillcolor="#e5813978"] ;
94 -> 95 ;
96 [label="gini = 0.0\nsamples = 1\nvalue = [0, 0, 1]\nclass = post", fillcolor="#8139e5ff"] ;
95 -> 96 ;
97 [label="likes <= 0.007\ngini = 0.544\nsamples = 21\nvalue = [13, 4, 4]\nclass = comment", fillcolor="#e5813987"] ;
95 -> 97 ;
98 [label="likes <= 0.007\ngini = 0.5\nsamples = 4\nvalue = [2, 2, 0]\nclass = comment", fillcolor="#e5813900"] ;
97 -> 98 ;
99 [label="gini = 0.5\nsamples = 2\nvalue = [1, 1, 0]\nclass = comment", fillcolor="#e5813900"] ;
98 -> 99 ;
100 [label="gini = 0.5\nsamples = 2\nvalue = [1, 1, 0]\nclass = comment", fillcolor="#e5813900"] ;
98 -> 100 ;
101 [label="likes <= 0.007\ngini = 0.512\nsamples = 17\nvalue = [11, 2, 4]\nclass = comment", fillcolor="#e5813989"] ;
97 -> 101 ;
102 [label="likes <= 0.007\ngini = 0.406\nsamples = 8\nvalue = [6, 1, 1]\nclass = comment", fillcolor="#e58139b6"] ;
101 -> 102 ;
103 [label="gini = 0.56\nsamples = 5\nvalue = [3, 1, 1]\nclass = comment", fillcolor="#e581397f"] ;
102 -> 103 ;
104 [label="gini = 0.0\nsamples = 3\nvalue = [3, 0, 0]\nclass = comment", fillcolor="#e58139ff"] ;
102 -> 104 ;
105 [label="likes <= 0.007\ngini = 0.568\nsamples = 9\nvalue = [5, 1, 3]\nclass = comment", fillcolor="#e5813955"] ;
101 -> 105 ;
106 [label="gini = 0.0\nsamples = 2\nvalue = [0, 0, 2]\nclass = post", fillcolor="#8139e5ff"] ;
105 -> 106 ;
107 [label="likes <= 0.007\ngini = 0.449\nsamples = 7\nvalue = [5, 1, 1]\nclass = comment", fillcolor="#e58139aa"] ;
105 -> 107 ;
108 [label="gini = 0.0\nsamples = 3\nvalue = [3, 0, 0]\nclass = comment", fillcolor="#e58139ff"] ;
107 -> 108 ;
109 [label="likes <= 0.007\ngini = 0.625\nsamples = 4\nvalue = [2, 1, 1]\nclass = comment", fillcolor="#e5813955"] ;
107 -> 109 ;
110 [label="gini = 0.667\nsamples = 3\nvalue = [1, 1, 1]\nclass = comment", fillcolor="#e5813900"] ;
109 -> 110 ;
111 [label="gini = 0.0\nsamples = 1\nvalue = [1, 0, 0]\nclass = comment", fillcolor="#e58139ff"] ;
109 -> 111 ;
112 [label="likes <= 0.008\ngini = 0.346\nsamples = 9\nvalue = [2, 0, 7]\nclass = post", fillcolor="#8139e5b6"] ;
94 -> 112 ;
113 [label="likes <= 0.008\ngini = 0.278\nsamples = 6\nvalue = [1, 0, 5]\nclass = post", fillcolor="#8139e5cc"] ;
112 -> 113 ;
114 [label="gini = 0.375\nsamples = 4\nvalue = [1, 0, 3]\nclass = post", fillcolor="#8139e5aa"] ;
113 -> 114 ;
115 [label="gini = 0.0\nsamples = 2\nvalue = [0, 0, 2]\nclass = post", fillcolor="#8139e5ff"] ;
113 -> 115 ;
116 [label="likes <= 0.008\ngini = 0.444\nsamples = 3\nvalue = [1, 0, 2]\nclass = post", fillcolor="#8139e57f"] ;
112 -> 116 ;
117 [label="gini = 0.5\nsamples = 2\nvalue = [1, 0, 1]\nclass = comment", fillcolor="#e5813900"] ;
116 -> 117 ;
118 [label="gini = 0.0\nsamples = 1\nvalue = [0, 0, 1]\nclass = post", fillcolor="#8139e5ff"] ;
116 -> 118 ;
119 [label="likes <= 0.028\ngini = 0.42\nsamples = 836\nvalue = [603, 31, 202]\nclass = comment", fillcolor="#e58139a1"] ;
93 -> 119 ;
120 [label="likes <= 0.028\ngini = 0.432\nsamples = 647\nvalue = [458, 24, 165]\nclass = comment", fillcolor="#e581399b"] ;
119 -> 120 ;
121 [label="likes <= 0.025\ngini = 0.432\nsamples = 646\nvalue = [458, 24, 164]\nclass = comment", fillcolor="#e581399c"] ;
120 -> 121 ;
122 [label="likes <= 0.024\ngini = 0.417\nsamples = 549\nvalue = [396, 17, 136]\nclass = comment", fillcolor="#e58139a1"] ;
121 -> 122 ;
123 [label="likes <= 0.024\ngini = 0.423\nsamples = 538\nvalue = [385, 17, 136]\nclass = comment", fillcolor="#e581399e"] ;
122 -> 123 ;
124 [label="likes <= 0.019\ngini = 0.421\nsamples = 536\nvalue = [385, 17, 134]\nclass = comment", fillcolor="#e581399f"] ;
123 -> 124 ;
125 [label="likes <= 0.012\ngini = 0.447\nsamples = 378\nvalue = [262, 15, 101]\nclass = comment", fillcolor="#e5813994"] ;
124 -> 125 ;
126 [label="likes <= 0.01\ngini = 0.393\nsamples = 116\nvalue = [87, 5, 24]\nclass = comment", fillcolor="#e58139af"] ;
125 -> 126 ;
127 [label="likes <= 0.01\ngini = 0.427\nsamples = 77\nvalue = [55, 3, 19]\nclass = comment", fillcolor="#e581399e"] ;
126 -> 127 ;
128 [label="likes <= 0.008\ngini = 0.387\nsamples = 72\nvalue = [54, 2, 16]\nclass = comment", fillcolor="#e58139ad"] ;
127 -> 128 ;
129 [label="gini = 0.0\nsamples = 3\nvalue = [3, 0, 0]\nclass = comment", fillcolor="#e58139ff"] ;
128 -> 129 ;
130 [label="likes <= 0.008\ngini = 0.399\nsamples = 69\nvalue = [51, 2, 16]\nclass = comment", fillcolor="#e58139a8"] ;
128 -> 130 ;
131 [label="likes <= 0.008\ngini = 0.521\nsamples = 13\nvalue = [8, 1, 4]\nclass = comment", fillcolor="#e5813971"] ;
130 -> 131 ;
132 [label="likes <= 0.008\ngini = 0.346\nsamples = 9\nvalue = [7, 0, 2]\nclass = comment", fillcolor="#e58139b6"] ;
131 -> 132 ;
133 [label="likes <= 0.008\ngini = 0.278\nsamples = 6\nvalue = [5, 0, 1]\nclass = comment", fillcolor="#e58139cc"] ;
132 -> 133 ;
134 [label="gini = 0.375\nsamples = 4\nvalue = [3, 0, 1]\nclass = comment", fillcolor="#e58139aa"] ;
133 -> 134 ;
135 [label="gini = 0.0\nsamples = 2\nvalue = [2, 0, 0]\nclass = comment", fillcolor="#e58139ff"] ;
133 -> 135 ;
136 [label="likes <= 0.008\ngini = 0.444\nsamples = 3\nvalue = [2, 0, 1]\nclass = comment", fillcolor="#e581397f"] ;
132 -> 136 ;
137 [label="gini = 0.5\nsamples = 2\nvalue = [1, 0, 1]\nclass = comment", fillcolor="#e5813900"] ;
136 -> 137 ;
138 [label="gini = 0.0\nsamples = 1\nvalue = [1, 0, 0]\nclass = comment", fillcolor="#e58139ff"] ;
136 -> 138 ;
139 [label="gini = 0.625\nsamples = 4\nvalue = [1, 1, 2]\nclass = post", fillcolor="#8139e555"] ;
131 -> 139 ;
140 [label="likes <= 0.009\ngini = 0.364\nsamples = 56\nvalue = [43, 1, 12]\nclass = comment", fillcolor="#e58139b4"] ;
130 -> 140 ;
141 [label="likes <= 0.009\ngini = 0.153\nsamples = 12\nvalue = [11, 0, 1]\nclass = comment", fillcolor="#e58139e8"] ;
140 -> 141 ;
142 [label="likes <= 0.009\ngini = 0.245\nsamples = 7\nvalue = [6, 0, 1]\nclass = comment", fillcolor="#e58139d4"] ;
141 -> 142 ;
143 [label="gini = 0.0\nsamples = 3\nvalue = [3, 0, 0]\nclass = comment", fillcolor="#e58139ff"] ;
142 -> 143 ;
144 [label="gini = 0.375\nsamples = 4\nvalue = [3, 0, 1]\nclass = comment", fillcolor="#e58139aa"] ;
142 -> 144 ;
145 [label="gini = 0.0\nsamples = 5\nvalue = [5, 0, 0]\nclass = comment", fillcolor="#e58139ff"] ;
141 -> 145 ;
146 [label="likes <= 0.009\ngini = 0.408\nsamples = 44\nvalue = [32, 1, 11]\nclass = comment", fillcolor="#e58139a2"] ;
140 -> 146 ;
147 [label="likes <= 0.009\ngini = 0.491\nsamples = 17\nvalue = [11, 1, 5]\nclass = comment", fillcolor="#e5813980"] ;
146 -> 147 ;
148 [label="likes <= 0.009\ngini = 0.375\nsamples = 8\nvalue = [6, 0, 2]\nclass = comment", fillcolor="#e58139aa"] ;
147 -> 148 ;
149 [label="likes <= 0.009\ngini = 0.48\nsamples = 5\nvalue = [3, 0, 2]\nclass = comment", fillcolor="#e5813955"] ;
148 -> 149 ;
150 [label="gini = 0.5\nsamples = 2\nvalue = [1, 0, 1]\nclass = comment", fillcolor="#e5813900"] ;
149 -> 150 ;
151 [label="likes <= 0.009\ngini = 0.444\nsamples = 3\nvalue = [2, 0, 1]\nclass = comment", fillcolor="#e581397f"] ;
149 -> 151 ;
152 [label="gini = 0.0\nsamples = 1\nvalue = [1, 0, 0]\nclass = comment", fillcolor="#e58139ff"] ;
151 -> 152 ;
153 [label="gini = 0.5\nsamples = 2\nvalue = [1, 0, 1]\nclass = comment", fillcolor="#e5813900"] ;
151 -> 153 ;
154 [label="gini = 0.0\nsamples = 3\nvalue = [3, 0, 0]\nclass = comment", fillcolor="#e58139ff"] ;
148 -> 154 ;
155 [label="likes <= 0.009\ngini = 0.568\nsamples = 9\nvalue = [5, 1, 3]\nclass = comment", fillcolor="#e5813955"] ;
147 -> 155 ;
156 [label="likes <= 0.009\ngini = 0.5\nsamples = 4\nvalue = [2, 0, 2]\nclass = comment", fillcolor="#e5813900"] ;
155 -> 156 ;
157 [label="gini = 0.5\nsamples = 2\nvalue = [1, 0, 1]\nclass = comment", fillcolor="#e5813900"] ;
156 -> 157 ;
158 [label="gini = 0.5\nsamples = 2\nvalue = [1, 0, 1]\nclass = comment", fillcolor="#e5813900"] ;
156 -> 158 ;
159 [label="likes <= 0.009\ngini = 0.56\nsamples = 5\nvalue = [3, 1, 1]\nclass = comment", fillcolor="#e581397f"] ;
155 -> 159 ;
160 [label="gini = 0.5\nsamples = 2\nvalue = [1, 1, 0]\nclass = comment", fillcolor="#e5813900"] ;
159 -> 160 ;
161 [label="gini = 0.444\nsamples = 3\nvalue = [2, 0, 1]\nclass = comment", fillcolor="#e581397f"] ;
159 -> 161 ;
162 [label="likes <= 0.009\ngini = 0.346\nsamples = 27\nvalue = [21, 0, 6]\nclass = comment", fillcolor="#e58139b6"] ;
146 -> 162 ;
163 [label="gini = 0.0\nsamples = 3\nvalue = [3, 0, 0]\nclass = comment", fillcolor="#e58139ff"] ;
162 -> 163 ;
164 [label="likes <= 0.009\ngini = 0.375\nsamples = 24\nvalue = [18, 0, 6]\nclass = comment", fillcolor="#e58139aa"] ;
162 -> 164 ;
165 [label="gini = 0.0\nsamples = 1\nvalue = [0, 0, 1]\nclass = post", fillcolor="#8139e5ff"] ;
164 -> 165 ;
166 [label="likes <= 0.01\ngini = 0.34\nsamples = 23\nvalue = [18, 0, 5]\nclass = comment", fillcolor="#e58139b8"] ;
164 -> 166 ;
167 [label="gini = 0.0\nsamples = 5\nvalue = [5, 0, 0]\nclass = comment", fillcolor="#e58139ff"] ;
166 -> 167 ;
168 [label="likes <= 0.01\ngini = 0.401\nsamples = 18\nvalue = [13, 0, 5]\nclass = comment", fillcolor="#e581399d"] ;
166 -> 168 ;
169 [label="gini = 0.0\nsamples = 1\nvalue = [0, 0, 1]\nclass = post", fillcolor="#8139e5ff"] ;
168 -> 169 ;
170 [label="likes <= 0.01\ngini = 0.36\nsamples = 17\nvalue = [13, 0, 4]\nclass = comment", fillcolor="#e58139b1"] ;
168 -> 170 ;
171 [label="likes <= 0.01\ngini = 0.278\nsamples = 6\nvalue = [5, 0, 1]\nclass = comment", fillcolor="#e58139cc"] ;
170 -> 171 ;
172 [label="gini = 0.32\nsamples = 5\nvalue = [4, 0, 1]\nclass = comment", fillcolor="#e58139bf"] ;
171 -> 172 ;
173 [label="gini = 0.0\nsamples = 1\nvalue = [1, 0, 0]\nclass = comment", fillcolor="#e58139ff"] ;
171 -> 173 ;
174 [label="likes <= 0.01\ngini = 0.397\nsamples = 11\nvalue = [8, 0, 3]\nclass = comment", fillcolor="#e581399f"] ;
170 -> 174 ;
175 [label="likes <= 0.01\ngini = 0.48\nsamples = 5\nvalue = [3, 0, 2]\nclass = comment", fillcolor="#e5813955"] ;
174 -> 175 ;
176 [label="gini = 0.444\nsamples = 3\nvalue = [2, 0, 1]\nclass = comment", fillcolor="#e581397f"] ;
175 -> 176 ;
177 [label="gini = 0.5\nsamples = 2\nvalue = [1, 0, 1]\nclass = comment", fillcolor="#e5813900"] ;
175 -> 177 ;
178 [label="likes <= 0.01\ngini = 0.278\nsamples = 6\nvalue = [5, 0, 1]\nclass = comment", fillcolor="#e58139cc"] ;
174 -> 178 ;
179 [label="gini = 0.0\nsamples = 3\nvalue = [3, 0, 0]\nclass = comment", fillcolor="#e58139ff"] ;
178 -> 179 ;
180 [label="gini = 0.444\nsamples = 3\nvalue = [2, 0, 1]\nclass = comment", fillcolor="#e581397f"] ;
178 -> 180 ;
181 [label="likes <= 0.01\ngini = 0.56\nsamples = 5\nvalue = [1, 1, 3]\nclass = post", fillcolor="#8139e57f"] ;
127 -> 181 ;
182 [label="gini = 0.0\nsamples = 1\nvalue = [0, 0, 1]\nclass = post", fillcolor="#8139e5ff"] ;
181 -> 182 ;
183 [label="gini = 0.625\nsamples = 4\nvalue = [1, 1, 2]\nclass = post", fillcolor="#8139e555"] ;
181 -> 183 ;
184 [label="likes <= 0.011\ngini = 0.308\nsamples = 39\nvalue = [32, 2, 5]\nclass = comment", fillcolor="#e58139ca"] ;
126 -> 184 ;
185 [label="likes <= 0.011\ngini = 0.111\nsamples = 17\nvalue = [16, 0, 1]\nclass = comment", fillcolor="#e58139ef"] ;
184 -> 185 ;
186 [label="likes <= 0.011\ngini = 0.219\nsamples = 8\nvalue = [7, 0, 1]\nclass = comment", fillcolor="#e58139db"] ;
185 -> 186 ;
187 [label="gini = 0.0\nsamples = 7\nvalue = [7, 0, 0]\nclass = comment", fillcolor="#e58139ff"] ;
186 -> 187 ;
188 [label="gini = 0.0\nsamples = 1\nvalue = [0, 0, 1]\nclass = post", fillcolor="#8139e5ff"] ;
186 -> 188 ;
189 [label="gini = 0.0\nsamples = 9\nvalue = [9, 0, 0]\nclass = comment", fillcolor="#e58139ff"] ;
185 -> 189 ;
190 [label="likes <= 0.011\ngini = 0.43\nsamples = 22\nvalue = [16, 2, 4]\nclass = comment", fillcolor="#e58139aa"] ;
184 -> 190 ;
191 [label="likes <= 0.011\ngini = 0.544\nsamples = 13\nvalue = [8, 2, 3]\nclass = comment", fillcolor="#e5813980"] ;
190 -> 191 ;
192 [label="likes <= 0.011\ngini = 0.494\nsamples = 9\nvalue = [6, 2, 1]\nclass = comment", fillcolor="#e5813992"] ;
191 -> 192 ;
193 [label="likes <= 0.011\ngini = 0.449\nsamples = 7\nvalue = [5, 1, 1]\nclass = comment", fillcolor="#e58139aa"] ;
192 -> 193 ;
194 [label="gini = 0.5\nsamples = 6\nvalue = [4, 1, 1]\nclass = comment", fillcolor="#e5813999"] ;
193 -> 194 ;
195 [label="gini = 0.0\nsamples = 1\nvalue = [1, 0, 0]\nclass = comment", fillcolor="#e58139ff"] ;
193 -> 195 ;
196 [label="gini = 0.5\nsamples = 2\nvalue = [1, 1, 0]\nclass = comment", fillcolor="#e5813900"] ;
192 -> 196 ;
197 [label="likes <= 0.011\ngini = 0.5\nsamples = 4\nvalue = [2, 0, 2]\nclass = comment", fillcolor="#e5813900"] ;
191 -> 197 ;
198 [label="gini = 0.5\nsamples = 2\nvalue = [1, 0, 1]\nclass = comment", fillcolor="#e5813900"] ;
197 -> 198 ;
199 [label="gini = 0.5\nsamples = 2\nvalue = [1, 0, 1]\nclass = comment", fillcolor="#e5813900"] ;
197 -> 199 ;
200 [label="likes <= 0.012\ngini = 0.198\nsamples = 9\nvalue = [8, 0, 1]\nclass = comment", fillcolor="#e58139df"] ;
190 -> 200 ;
201 [label="gini = 0.278\nsamples = 6\nvalue = [5, 0, 1]\nclass = comment", fillcolor="#e58139cc"] ;
200 -> 201 ;
202 [label="gini = 0.0\nsamples = 3\nvalue = [3, 0, 0]\nclass = comment", fillcolor="#e58139ff"] ;
200 -> 202 ;
203 [label="likes <= 0.012\ngini = 0.466\nsamples = 262\nvalue = [175, 10, 77]\nclass = comment", fillcolor="#e5813987"] ;
125 -> 203 ;
204 [label="likes <= 0.012\ngini = 0.645\nsamples = 11\nvalue = [5, 3, 3]\nclass = comment", fillcolor="#e5813940"] ;
203 -> 204 ;
205 [label="likes <= 0.012\ngini = 0.594\nsamples = 8\nvalue = [4, 1, 3]\nclass = comment", fillcolor="#e5813933"] ;
204 -> 205 ;
206 [label="likes <= 0.012\ngini = 0.571\nsamples = 7\nvalue = [4, 1, 2]\nclass = comment", fillcolor="#e5813966"] ;
205 -> 206 ;
207 [label="gini = 0.611\nsamples = 6\nvalue = [3, 1, 2]\nclass = comment", fillcolor="#e5813940"] ;
206 -> 207 ;
208 [label="gini = 0.0\nsamples = 1\nvalue = [1, 0, 0]\nclass = comment", fillcolor="#e58139ff"] ;
206 -> 208 ;
209 [label="gini = 0.0\nsamples = 1\nvalue = [0, 0, 1]\nclass = post", fillcolor="#8139e5ff"] ;
205 -> 209 ;
210 [label="likes <= 0.012\ngini = 0.444\nsamples = 3\nvalue = [1, 2, 0]\nclass = comment_to_comment", fillcolor="#39e5817f"] ;
204 -> 210 ;
211 [label="gini = 0.5\nsamples = 2\nvalue = [1, 1, 0]\nclass = comment", fillcolor="#e5813900"] ;
210 -> 211 ;
212 [label="gini = 0.0\nsamples = 1\nvalue = [0, 1, 0]\nclass = comment_to_comment", fillcolor="#39e581ff"] ;
210 -> 212 ;
213 [label="likes <= 0.019\ngini = 0.454\nsamples = 251\nvalue = [170, 7, 74]\nclass = comment", fillcolor="#e581398a"] ;
203 -> 213 ;
214 [label="likes <= 0.019\ngini = 0.451\nsamples = 248\nvalue = [169, 7, 72]\nclass = comment", fillcolor="#e581398d"] ;
213 -> 214 ;
215 [label="likes <= 0.019\ngini = 0.455\nsamples = 241\nvalue = [163, 7, 71]\nclass = comment", fillcolor="#e581398a"] ;
214 -> 215 ;
216 [label="likes <= 0.018\ngini = 0.451\nsamples = 236\nvalue = [161, 7, 68]\nclass = comment", fillcolor="#e581398d"] ;
215 -> 216 ;
217 [label="likes <= 0.017\ngini = 0.461\nsamples = 216\nvalue = [145, 7, 64]\nclass = comment", fillcolor="#e5813988"] ;
216 -> 217 ;
218 [label="likes <= 0.017\ngini = 0.431\nsamples = 171\nvalue = [120, 4, 47]\nclass = comment", fillcolor="#e5813996"] ;
217 -> 218 ;
219 [label="likes <= 0.016\ngini = 0.446\nsamples = 156\nvalue = [107, 4, 45]\nclass = comment", fillcolor="#e581398e"] ;
218 -> 219 ;
220 [label="likes <= 0.013\ngini = 0.442\nsamples = 155\nvalue = [107, 4, 44]\nclass = comment", fillcolor="#e5813991"] ;
219 -> 220 ;
221 [label="likes <= 0.013\ngini = 0.484\nsamples = 43\nvalue = [27, 1, 15]\nclass = comment", fillcolor="#e581396d"] ;
220 -> 221 ;
222 [label="likes <= 0.013\ngini = 0.444\nsamples = 33\nvalue = [22, 0, 11]\nclass = comment", fillcolor="#e581397f"] ;
221 -> 222 ;
223 [label="likes <= 0.013\ngini = 0.451\nsamples = 32\nvalue = [21, 0, 11]\nclass = comment", fillcolor="#e5813979"] ;
222 -> 223 ;
224 [label="likes <= 0.013\ngini = 0.444\nsamples = 30\nvalue = [20, 0, 10]\nclass = comment", fillcolor="#e581397f"] ;
223 -> 224 ;
225 [label="likes <= 0.013\ngini = 0.461\nsamples = 25\nvalue = [16, 0, 9]\nclass = comment", fillcolor="#e5813970"] ;
224 -> 225 ;
226 [label="likes <= 0.012\ngini = 0.444\nsamples = 24\nvalue = [16, 0, 8]\nclass = comment", fillcolor="#e581397f"] ;
225 -> 226 ;
227 [label="gini = 0.375\nsamples = 4\nvalue = [3, 0, 1]\nclass = comment", fillcolor="#e58139aa"] ;
226 -> 227 ;
228 [label="likes <= 0.012\ngini = 0.455\nsamples = 20\nvalue = [13, 0, 7]\nclass = comment", fillcolor="#e5813976"] ;
226 -> 228 ;
229 [label="likes <= 0.012\ngini = 0.49\nsamples = 7\nvalue = [4, 0, 3]\nclass = comment", fillcolor="#e5813940"] ;
228 -> 229 ;
230 [label="gini = 0.5\nsamples = 2\nvalue = [1, 0, 1]\nclass = comment", fillcolor="#e5813900"] ;
229 -> 230 ;
231 [label="gini = 0.48\nsamples = 5\nvalue = [3, 0, 2]\nclass = comment", fillcolor="#e5813955"] ;
229 -> 231 ;
232 [label="likes <= 0.012\ngini = 0.426\nsamples = 13\nvalue = [9, 0, 4]\nclass = comment", fillcolor="#e581398e"] ;
228 -> 232 ;
233 [label="gini = 0.0\nsamples = 1\nvalue = [1, 0, 0]\nclass = comment", fillcolor="#e58139ff"] ;
232 -> 233 ;
234 [label="likes <= 0.012\ngini = 0.444\nsamples = 12\nvalue = [8, 0, 4]\nclass = comment", fillcolor="#e581397f"] ;
232 -> 234 ;
235 [label="likes <= 0.012\ngini = 0.48\nsamples = 5\nvalue = [3, 0, 2]\nclass = comment", fillcolor="#e5813955"] ;
234 -> 235 ;
236 [label="gini = 0.444\nsamples = 3\nvalue = [2, 0, 1]\nclass = comment", fillcolor="#e581397f"] ;
235 -> 236 ;
237 [label="gini = 0.5\nsamples = 2\nvalue = [1, 0, 1]\nclass = comment", fillcolor="#e5813900"] ;
235 -> 237 ;
238 [label="likes <= 0.012\ngini = 0.408\nsamples = 7\nvalue = [5, 0, 2]\nclass = comment", fillcolor="#e5813999"] ;
234 -> 238 ;
239 [label="gini = 0.0\nsamples = 1\nvalue = [1, 0, 0]\nclass = comment", fillcolor="#e58139ff"] ;
238 -> 239 ;
240 [label="gini = 0.444\nsamples = 6\nvalue = [4, 0, 2]\nclass = comment", fillcolor="#e581397f"] ;
238 -> 240 ;
241 [label="gini = 0.0\nsamples = 1\nvalue = [0, 0, 1]\nclass = post", fillcolor="#8139e5ff"] ;
225 -> 241 ;
242 [label="gini = 0.32\nsamples = 5\nvalue = [4, 0, 1]\nclass = comment", fillcolor="#e58139bf"] ;
224 -> 242 ;
243 [label="gini = 0.5\nsamples = 2\nvalue = [1, 0, 1]\nclass = comment", fillcolor="#e5813900"] ;
223 -> 243 ;
244 [label="gini = 0.0\nsamples = 1\nvalue = [1, 0, 0]\nclass = comment", fillcolor="#e58139ff"] ;
222 -> 244 ;
245 [label="likes <= 0.013\ngini = 0.58\nsamples = 10\nvalue = [5, 1, 4]\nclass = comment", fillcolor="#e581392a"] ;
221 -> 245 ;
246 [label="gini = 0.625\nsamples = 4\nvalue = [2, 1, 1]\nclass = comment", fillcolor="#e5813955"] ;
245 -> 246 ;
247 [label="likes <= 0.013\ngini = 0.5\nsamples = 6\nvalue = [3, 0, 3]\nclass = comment", fillcolor="#e5813900"] ;
245 -> 247 ;
248 [label="gini = 0.0\nsamples = 1\nvalue = [0, 0, 1]\nclass = post", fillcolor="#8139e5ff"] ;
247 -> 248 ;
249 [label="gini = 0.48\nsamples = 5\nvalue = [3, 0, 2]\nclass = comment", fillcolor="#e5813955"] ;
247 -> 249 ;
250 [label="likes <= 0.013\ngini = 0.422\nsamples = 112\nvalue = [80, 3, 29]\nclass = comment", fillcolor="#e581399d"] ;
220 -> 250 ;
251 [label="gini = 0.0\nsamples = 10\nvalue = [10, 0, 0]\nclass = comment", fillcolor="#e58139ff"] ;
250 -> 251 ;
252 [label="likes <= 0.014\ngini = 0.447\nsamples = 102\nvalue = [70, 3, 29]\nclass = comment", fillcolor="#e581398f"] ;
250 -> 252 ;
253 [label="likes <= 0.014\ngini = 0.494\nsamples = 9\nvalue = [5, 0, 4]\nclass = comment", fillcolor="#e5813933"] ;
252 -> 253 ;
254 [label="gini = 0.32\nsamples = 5\nvalue = [4, 0, 1]\nclass = comment", fillcolor="#e58139bf"] ;
253 -> 254 ;
255 [label="likes <= 0.014\ngini = 0.375\nsamples = 4\nvalue = [1, 0, 3]\nclass = post", fillcolor="#8139e5aa"] ;
253 -> 255 ;
256 [label="gini = 0.0\nsamples = 1\nvalue = [0, 0, 1]\nclass = post", fillcolor="#8139e5ff"] ;
255 -> 256 ;
257 [label="gini = 0.444\nsamples = 3\nvalue = [1, 0, 2]\nclass = post", fillcolor="#8139e57f"] ;
255 -> 257 ;
258 [label="likes <= 0.015\ngini = 0.438\nsamples = 93\nvalue = [65, 3, 25]\nclass = comment", fillcolor="#e5813996"] ;
252 -> 258 ;
259 [label="likes <= 0.015\ngini = 0.373\nsamples = 38\nvalue = [29, 1, 8]\nclass = comment", fillcolor="#e58139b2"] ;
258 -> 259 ;
260 [label="likes <= 0.014\ngini = 0.426\nsamples = 26\nvalue = [18, 0, 8]\nclass = comment", fillcolor="#e581398e"] ;
259 -> 260 ;
261 [label="likes <= 0.014\ngini = 0.351\nsamples = 22\nvalue = [17, 0, 5]\nclass = comment", fillcolor="#e58139b4"] ;
260 -> 261 ;
262 [label="likes <= 0.014\ngini = 0.415\nsamples = 17\nvalue = [12, 0, 5]\nclass = comment", fillcolor="#e5813995"] ;
261 -> 262 ;
263 [label="gini = 0.0\nsamples = 1\nvalue = [1, 0, 0]\nclass = comment", fillcolor="#e58139ff"] ;
262 -> 263 ;
264 [label="likes <= 0.014\ngini = 0.43\nsamples = 16\nvalue = [11, 0, 5]\nclass = comment", fillcolor="#e581398b"] ;
262 -> 264 ;
265 [label="gini = 0.397\nsamples = 11\nvalue = [8, 0, 3]\nclass = comment", fillcolor="#e581399f"] ;
264 -> 265 ;
266 [label="gini = 0.48\nsamples = 5\nvalue = [3, 0, 2]\nclass = comment", fillcolor="#e5813955"] ;
264 -> 266 ;
267 [label="gini = 0.0\nsamples = 5\nvalue = [5, 0, 0]\nclass = comment", fillcolor="#e58139ff"] ;
261 -> 267 ;
268 [label="gini = 0.375\nsamples = 4\nvalue = [1, 0, 3]\nclass = post", fillcolor="#8139e5aa"] ;
260 -> 268 ;
269 [label="likes <= 0.015\ngini = 0.153\nsamples = 12\nvalue = [11, 1, 0]\nclass = comment", fillcolor="#e58139e8"] ;
259 -> 269 ;
270 [label="gini = 0.444\nsamples = 3\nvalue = [2, 1, 0]\nclass = comment", fillcolor="#e581397f"] ;
269 -> 270 ;
271 [label="gini = 0.0\nsamples = 9\nvalue = [9, 0, 0]\nclass = comment", fillcolor="#e58139ff"] ;
269 -> 271 ;
272 [label="likes <= 0.016\ngini = 0.475\nsamples = 55\nvalue = [36, 2, 17]\nclass = comment", fillcolor="#e5813980"] ;
258 -> 272 ;
273 [label="likes <= 0.016\ngini = 0.497\nsamples = 38\nvalue = [23, 1, 14]\nclass = comment", fillcolor="#e5813960"] ;
272 -> 273 ;
274 [label="likes <= 0.016\ngini = 0.471\nsamples = 32\nvalue = [21, 1, 10]\nclass = comment", fillcolor="#e5813980"] ;
273 -> 274 ;
275 [label="likes <= 0.015\ngini = 0.515\nsamples = 20\nvalue = [12, 1, 7]\nclass = comment", fillcolor="#e5813962"] ;
274 -> 275 ;
276 [label="likes <= 0.015\ngini = 0.491\nsamples = 17\nvalue = [11, 1, 5]\nclass = comment", fillcolor="#e5813980"] ;
275 -> 276 ;
277 [label="likes <= 0.015\ngini = 0.48\nsamples = 10\nvalue = [6, 0, 4]\nclass = comment", fillcolor="#e5813955"] ;
276 -> 277 ;
278 [label="likes <= 0.015\ngini = 0.444\nsamples = 9\nvalue = [6, 0, 3]\nclass = comment", fillcolor="#e581397f"] ;
277 -> 278 ;
279 [label="gini = 0.5\nsamples = 2\nvalue = [1, 0, 1]\nclass = comment", fillcolor="#e5813900"] ;
278 -> 279 ;
280 [label="gini = 0.408\nsamples = 7\nvalue = [5, 0, 2]\nclass = comment", fillcolor="#e5813999"] ;
278 -> 280 ;
281 [label="gini = 0.0\nsamples = 1\nvalue = [0, 0, 1]\nclass = post", fillcolor="#8139e5ff"] ;
277 -> 281 ;
282 [label="likes <= 0.015\ngini = 0.449\nsamples = 7\nvalue = [5, 1, 1]\nclass = comment", fillcolor="#e58139aa"] ;
276 -> 282 ;
283 [label="likes <= 0.015\ngini = 0.5\nsamples = 2\nvalue = [1, 1, 0]\nclass = comment", fillcolor="#e5813900"] ;
282 -> 283 ;
284 [label="gini = 0.0\nsamples = 1\nvalue = [1, 0, 0]\nclass = comment", fillcolor="#e58139ff"] ;
283 -> 284 ;
285 [label="gini = 0.0\nsamples = 1\nvalue = [0, 1, 0]\nclass = comment_to_comment", fillcolor="#39e581ff"] ;
283 -> 285 ;
286 [label="likes <= 0.015\ngini = 0.32\nsamples = 5\nvalue = [4, 0, 1]\nclass = comment", fillcolor="#e58139bf"] ;
282 -> 286 ;
287 [label="gini = 0.375\nsamples = 4\nvalue = [3, 0, 1]\nclass = comment", fillcolor="#e58139aa"] ;
286 -> 287 ;
288 [label="gini = 0.0\nsamples = 1\nvalue = [1, 0, 0]\nclass = comment", fillcolor="#e58139ff"] ;
286 -> 288 ;
289 [label="gini = 0.444\nsamples = 3\nvalue = [1, 0, 2]\nclass = post", fillcolor="#8139e57f"] ;
275 -> 289 ;
290 [label="likes <= 0.016\ngini = 0.375\nsamples = 12\nvalue = [9, 0, 3]\nclass = comment", fillcolor="#e58139aa"] ;
274 -> 290 ;
291 [label="gini = 0.32\nsamples = 5\nvalue = [4, 0, 1]\nclass = comment", fillcolor="#e58139bf"] ;
290 -> 291 ;
292 [label="likes <= 0.016\ngini = 0.408\nsamples = 7\nvalue = [5, 0, 2]\nclass = comment", fillcolor="#e5813999"] ;
290 -> 292 ;
293 [label="gini = 0.444\nsamples = 3\nvalue = [2, 0, 1]\nclass = comment", fillcolor="#e581397f"] ;
292 -> 293 ;
294 [label="gini = 0.375\nsamples = 4\nvalue = [3, 0, 1]\nclass = comment", fillcolor="#e58139aa"] ;
292 -> 294 ;
295 [label="likes <= 0.016\ngini = 0.444\nsamples = 6\nvalue = [2, 0, 4]\nclass = post", fillcolor="#8139e57f"] ;
273 -> 295 ;
296 [label="gini = 0.0\nsamples = 1\nvalue = [0, 0, 1]\nclass = post", fillcolor="#8139e5ff"] ;
295 -> 296 ;
297 [label="likes <= 0.016\ngini = 0.48\nsamples = 5\nvalue = [2, 0, 3]\nclass = post", fillcolor="#8139e555"] ;
295 -> 297 ;
298 [label="gini = 0.5\nsamples = 4\nvalue = [2, 0, 2]\nclass = comment", fillcolor="#e5813900"] ;
297 -> 298 ;
299 [label="gini = 0.0\nsamples = 1\nvalue = [0, 0, 1]\nclass = post", fillcolor="#8139e5ff"] ;
297 -> 299 ;
300 [label="likes <= 0.016\ngini = 0.381\nsamples = 17\nvalue = [13, 1, 3]\nclass = comment", fillcolor="#e58139b6"] ;
272 -> 300 ;
301 [label="likes <= 0.016\ngini = 0.219\nsamples = 8\nvalue = [7, 0, 1]\nclass = comment", fillcolor="#e58139db"] ;
300 -> 301 ;
302 [label="gini = 0.278\nsamples = 6\nvalue = [5, 0, 1]\nclass = comment", fillcolor="#e58139cc"] ;
301 -> 302 ;
303 [label="gini = 0.0\nsamples = 2\nvalue = [2, 0, 0]\nclass = comment", fillcolor="#e58139ff"] ;
301 -> 303 ;
304 [label="likes <= 0.016\ngini = 0.494\nsamples = 9\nvalue = [6, 1, 2]\nclass = comment", fillcolor="#e5813992"] ;
300 -> 304 ;
305 [label="gini = 0.0\nsamples = 1\nvalue = [0, 1, 0]\nclass = comment_to_comment", fillcolor="#39e581ff"] ;
304 -> 305 ;
306 [label="likes <= 0.016\ngini = 0.375\nsamples = 8\nvalue = [6, 0, 2]\nclass = comment", fillcolor="#e58139aa"] ;
304 -> 306 ;
307 [label="gini = 0.0\nsamples = 1\nvalue = [1, 0, 0]\nclass = comment", fillcolor="#e58139ff"] ;
306 -> 307 ;
308 [label="gini = 0.408\nsamples = 7\nvalue = [5, 0, 2]\nclass = comment", fillcolor="#e5813999"] ;
306 -> 308 ;
309 [label="gini = 0.0\nsamples = 1\nvalue = [0, 0, 1]\nclass = post", fillcolor="#8139e5ff"] ;
219 -> 309 ;
310 [label="likes <= 0.017\ngini = 0.231\nsamples = 15\nvalue = [13, 0, 2]\nclass = comment", fillcolor="#e58139d8"] ;
218 -> 310 ;
311 [label="gini = 0.0\nsamples = 2\nvalue = [2, 0, 0]\nclass = comment", fillcolor="#e58139ff"] ;
310 -> 311 ;
312 [label="likes <= 0.017\ngini = 0.26\nsamples = 13\nvalue = [11, 0, 2]\nclass = comment", fillcolor="#e58139d1"] ;
310 -> 312 ;
313 [label="gini = 0.32\nsamples = 5\nvalue = [4, 0, 1]\nclass = comment", fillcolor="#e58139bf"] ;
312 -> 313 ;
314 [label="likes <= 0.017\ngini = 0.219\nsamples = 8\nvalue = [7, 0, 1]\nclass = comment", fillcolor="#e58139db"] ;
312 -> 314 ;
315 [label="gini = 0.0\nsamples = 1\nvalue = [1, 0, 0]\nclass = comment", fillcolor="#e58139ff"] ;
314 -> 315 ;
316 [label="gini = 0.245\nsamples = 7\nvalue = [6, 0, 1]\nclass = comment", fillcolor="#e58139d4"] ;
314 -> 316 ;
317 [label="likes <= 0.017\ngini = 0.544\nsamples = 45\nvalue = [25, 3, 17]\nclass = comment", fillcolor="#e5813949"] ;
217 -> 317 ;
318 [label="likes <= 0.017\ngini = 0.571\nsamples = 7\nvalue = [1, 2, 4]\nclass = post", fillcolor="#8139e566"] ;
317 -> 318 ;
319 [label="likes <= 0.017\ngini = 0.64\nsamples = 5\nvalue = [1, 2, 2]\nclass = comment_to_comment", fillcolor="#39e58100"] ;
318 -> 319 ;
320 [label="likes <= 0.017\ngini = 0.444\nsamples = 3\nvalue = [0, 1, 2]\nclass = post", fillcolor="#8139e57f"] ;
319 -> 320 ;
321 [label="gini = 0.0\nsamples = 1\nvalue = [0, 0, 1]\nclass = post", fillcolor="#8139e5ff"] ;
320 -> 321 ;
322 [label="likes <= 0.017\ngini = 0.5\nsamples = 2\nvalue = [0, 1, 1]\nclass = comment_to_comment", fillcolor="#39e58100"] ;
320 -> 322 ;
323 [label="gini = 0.0\nsamples = 1\nvalue = [0, 1, 0]\nclass = comment_to_comment", fillcolor="#39e581ff"] ;
322 -> 323 ;
324 [label="gini = 0.0\nsamples = 1\nvalue = [0, 0, 1]\nclass = post", fillcolor="#8139e5ff"] ;
322 -> 324 ;
325 [label="likes <= 0.017\ngini = 0.5\nsamples = 2\nvalue = [1, 1, 0]\nclass = comment", fillcolor="#e5813900"] ;
319 -> 325 ;
326 [label="gini = 0.0\nsamples = 1\nvalue = [1, 0, 0]\nclass = comment", fillcolor="#e58139ff"] ;
325 -> 326 ;
327 [label="gini = 0.0\nsamples = 1\nvalue = [0, 1, 0]\nclass = comment_to_comment", fillcolor="#39e581ff"] ;
325 -> 327 ;
328 [label="gini = 0.0\nsamples = 2\nvalue = [0, 0, 2]\nclass = post", fillcolor="#8139e5ff"] ;
318 -> 328 ;
329 [label="likes <= 0.018\ngini = 0.483\nsamples = 38\nvalue = [24, 1, 13]\nclass = comment", fillcolor="#e5813970"] ;
317 -> 329 ;
330 [label="likes <= 0.018\ngini = 0.34\nsamples = 10\nvalue = [8, 1, 1]\nclass = comment", fillcolor="#e58139c6"] ;
329 -> 330 ;
331 [label="likes <= 0.018\ngini = 0.219\nsamples = 8\nvalue = [7, 0, 1]\nclass = comment", fillcolor="#e58139db"] ;
330 -> 331 ;
332 [label="gini = 0.0\nsamples = 2\nvalue = [2, 0, 0]\nclass = comment", fillcolor="#e58139ff"] ;
331 -> 332 ;
333 [label="gini = 0.278\nsamples = 6\nvalue = [5, 0, 1]\nclass = comment", fillcolor="#e58139cc"] ;
331 -> 333 ;
334 [label="likes <= 0.018\ngini = 0.5\nsamples = 2\nvalue = [1, 1, 0]\nclass = comment", fillcolor="#e5813900"] ;
330 -> 334 ;
335 [label="gini = 0.0\nsamples = 1\nvalue = [0, 1, 0]\nclass = comment_to_comment", fillcolor="#39e581ff"] ;
334 -> 335 ;
336 [label="gini = 0.0\nsamples = 1\nvalue = [1, 0, 0]\nclass = comment", fillcolor="#e58139ff"] ;
334 -> 336 ;
337 [label="likes <= 0.018\ngini = 0.49\nsamples = 28\nvalue = [16, 0, 12]\nclass = comment", fillcolor="#e5813940"] ;
329 -> 337 ;
338 [label="likes <= 0.018\ngini = 0.472\nsamples = 21\nvalue = [13, 0, 8]\nclass = comment", fillcolor="#e5813962"] ;
337 -> 338 ;
339 [label="likes <= 0.018\ngini = 0.5\nsamples = 6\nvalue = [3, 0, 3]\nclass = comment", fillcolor="#e5813900"] ;
338 -> 339 ;
340 [label="gini = 0.48\nsamples = 5\nvalue = [3, 0, 2]\nclass = comment", fillcolor="#e5813955"] ;
339 -> 340 ;
341 [label="gini = 0.0\nsamples = 1\nvalue = [0, 0, 1]\nclass = post", fillcolor="#8139e5ff"] ;
339 -> 341 ;
342 [label="likes <= 0.018\ngini = 0.444\nsamples = 15\nvalue = [10, 0, 5]\nclass = comment", fillcolor="#e581397f"] ;
338 -> 342 ;
343 [label="likes <= 0.018\ngini = 0.42\nsamples = 10\nvalue = [7, 0, 3]\nclass = comment", fillcolor="#e5813992"] ;
342 -> 343 ;
344 [label="gini = 0.444\nsamples = 9\nvalue = [6, 0, 3]\nclass = comment", fillcolor="#e581397f"] ;
343 -> 344 ;
345 [label="gini = 0.0\nsamples = 1\nvalue = [1, 0, 0]\nclass = comment", fillcolor="#e58139ff"] ;
343 -> 345 ;
346 [label="gini = 0.48\nsamples = 5\nvalue = [3, 0, 2]\nclass = comment", fillcolor="#e5813955"] ;
342 -> 346 ;
347 [label="likes <= 0.018\ngini = 0.49\nsamples = 7\nvalue = [3, 0, 4]\nclass = post", fillcolor="#8139e540"] ;
337 -> 347 ;
348 [label="gini = 0.0\nsamples = 1\nvalue = [0, 0, 1]\nclass = post", fillcolor="#8139e5ff"] ;
347 -> 348 ;
349 [label="gini = 0.5\nsamples = 6\nvalue = [3, 0, 3]\nclass = comment", fillcolor="#e5813900"] ;
347 -> 349 ;
350 [label="likes <= 0.018\ngini = 0.32\nsamples = 20\nvalue = [16, 0, 4]\nclass = comment", fillcolor="#e58139bf"] ;
216 -> 350 ;
351 [label="gini = 0.0\nsamples = 2\nvalue = [2, 0, 0]\nclass = comment", fillcolor="#e58139ff"] ;
350 -> 351 ;
352 [label="likes <= 0.019\ngini = 0.346\nsamples = 18\nvalue = [14, 0, 4]\nclass = comment", fillcolor="#e58139b6"] ;
350 -> 352 ;
353 [label="gini = 0.444\nsamples = 3\nvalue = [2, 0, 1]\nclass = comment", fillcolor="#e581397f"] ;
352 -> 353 ;
354 [label="likes <= 0.019\ngini = 0.32\nsamples = 15\nvalue = [12, 0, 3]\nclass = comment", fillcolor="#e58139bf"] ;
352 -> 354 ;
355 [label="gini = 0.0\nsamples = 3\nvalue = [3, 0, 0]\nclass = comment", fillcolor="#e58139ff"] ;
354 -> 355 ;
356 [label="gini = 0.375\nsamples = 12\nvalue = [9, 0, 3]\nclass = comment", fillcolor="#e58139aa"] ;
354 -> 356 ;
357 [label="likes <= 0.019\ngini = 0.48\nsamples = 5\nvalue = [2, 0, 3]\nclass = post", fillcolor="#8139e555"] ;
215 -> 357 ;
358 [label="gini = 0.0\nsamples = 1\nvalue = [0, 0, 1]\nclass = post", fillcolor="#8139e5ff"] ;
357 -> 358 ;
359 [label="gini = 0.5\nsamples = 4\nvalue = [2, 0, 2]\nclass = comment", fillcolor="#e5813900"] ;
357 -> 359 ;
360 [label="gini = 0.245\nsamples = 7\nvalue = [6, 0, 1]\nclass = comment", fillcolor="#e58139d4"] ;
214 -> 360 ;
361 [label="gini = 0.444\nsamples = 3\nvalue = [1, 0, 2]\nclass = post", fillcolor="#8139e57f"] ;
213 -> 361 ;
362 [label="likes <= 0.023\ngini = 0.35\nsamples = 158\nvalue = [123, 2, 33]\nclass = comment", fillcolor="#e58139b8"] ;
124 -> 362 ;
363 [label="likes <= 0.023\ngini = 0.325\nsamples = 135\nvalue = [108, 2, 25]\nclass = comment", fillcolor="#e58139c0"] ;
362 -> 363 ;
364 [label="likes <= 0.02\ngini = 0.349\nsamples = 123\nvalue = [96, 2, 25]\nclass = comment", fillcolor="#e58139b9"] ;
363 -> 364 ;
365 [label="likes <= 0.02\ngini = 0.226\nsamples = 24\nvalue = [21, 1, 2]\nclass = comment", fillcolor="#e58139dc"] ;
364 -> 365 ;
366 [label="likes <= 0.02\ngini = 0.32\nsamples = 5\nvalue = [4, 0, 1]\nclass = comment", fillcolor="#e58139bf"] ;
365 -> 366 ;
367 [label="gini = 0.0\nsamples = 1\nvalue = [1, 0, 0]\nclass = comment", fillcolor="#e58139ff"] ;
366 -> 367 ;
368 [label="gini = 0.375\nsamples = 4\nvalue = [3, 0, 1]\nclass = comment", fillcolor="#e58139aa"] ;
366 -> 368 ;
369 [label="likes <= 0.02\ngini = 0.194\nsamples = 19\nvalue = [17, 1, 1]\nclass = comment", fillcolor="#e58139e3"] ;
365 -> 369 ;
370 [label="gini = 0.0\nsamples = 5\nvalue = [5, 0, 0]\nclass = comment", fillcolor="#e58139ff"] ;
369 -> 370 ;
371 [label="likes <= 0.02\ngini = 0.255\nsamples = 14\nvalue = [12, 1, 1]\nclass = comment", fillcolor="#e58139d8"] ;
369 -> 371 ;
372 [label="gini = 0.314\nsamples = 11\nvalue = [9, 1, 1]\nclass = comment", fillcolor="#e58139cc"] ;
371 -> 372 ;
373 [label="gini = 0.0\nsamples = 3\nvalue = [3, 0, 0]\nclass = comment", fillcolor="#e58139ff"] ;
371 -> 373 ;
374 [label="likes <= 0.021\ngini = 0.372\nsamples = 99\nvalue = [75, 1, 23]\nclass = comment", fillcolor="#e58139ae"] ;
364 -> 374 ;
375 [label="likes <= 0.02\ngini = 0.492\nsamples = 16\nvalue = [9, 0, 7]\nclass = comment", fillcolor="#e5813939"] ;
374 -> 375 ;
376 [label="gini = 0.0\nsamples = 1\nvalue = [0, 0, 1]\nclass = post", fillcolor="#8139e5ff"] ;
375 -> 376 ;
377 [label="likes <= 0.021\ngini = 0.48\nsamples = 15\nvalue = [9, 0, 6]\nclass = comment", fillcolor="#e5813955"] ;
375 -> 377 ;
378 [label="gini = 0.42\nsamples = 10\nvalue = [7, 0, 3]\nclass = comment", fillcolor="#e5813992"] ;
377 -> 378 ;
379 [label="gini = 0.48\nsamples = 5\nvalue = [2, 0, 3]\nclass = post", fillcolor="#8139e555"] ;
377 -> 379 ;
380 [label="likes <= 0.022\ngini = 0.33\nsamples = 83\nvalue = [66, 1, 16]\nclass = comment", fillcolor="#e58139be"] ;
374 -> 380 ;
381 [label="likes <= 0.021\ngini = 0.219\nsamples = 40\nvalue = [35, 0, 5]\nclass = comment", fillcolor="#e58139db"] ;
380 -> 381 ;
382 [label="likes <= 0.021\ngini = 0.287\nsamples = 23\nvalue = [19, 0, 4]\nclass = comment", fillcolor="#e58139c9"] ;
381 -> 382 ;
383 [label="likes <= 0.021\ngini = 0.219\nsamples = 16\nvalue = [14, 0, 2]\nclass = comment", fillcolor="#e58139db"] ;
382 -> 383 ;
384 [label="gini = 0.0\nsamples = 2\nvalue = [2, 0, 0]\nclass = comment", fillcolor="#e58139ff"] ;
383 -> 384 ;
385 [label="likes <= 0.021\ngini = 0.245\nsamples = 14\nvalue = [12, 0, 2]\nclass = comment", fillcolor="#e58139d4"] ;
383 -> 385 ;
386 [label="gini = 0.26\nsamples = 13\nvalue = [11, 0, 2]\nclass = comment", fillcolor="#e58139d1"] ;
385 -> 386 ;
387 [label="gini = 0.0\nsamples = 1\nvalue = [1, 0, 0]\nclass = comment", fillcolor="#e58139ff"] ;
385 -> 387 ;
388 [label="gini = 0.408\nsamples = 7\nvalue = [5, 0, 2]\nclass = comment", fillcolor="#e5813999"] ;
382 -> 388 ;
389 [label="likes <= 0.022\ngini = 0.111\nsamples = 17\nvalue = [16, 0, 1]\nclass = comment", fillcolor="#e58139ef"] ;
381 -> 389 ;
390 [label="gini = 0.0\nsamples = 11\nvalue = [11, 0, 0]\nclass = comment", fillcolor="#e58139ff"] ;
389 -> 390 ;
391 [label="likes <= 0.022\ngini = 0.278\nsamples = 6\nvalue = [5, 0, 1]\nclass = comment", fillcolor="#e58139cc"] ;
389 -> 391 ;
392 [label="gini = 0.32\nsamples = 5\nvalue = [4, 0, 1]\nclass = comment", fillcolor="#e58139bf"] ;
391 -> 392 ;
393 [label="gini = 0.0\nsamples = 1\nvalue = [1, 0, 0]\nclass = comment", fillcolor="#e58139ff"] ;
391 -> 393 ;
394 [label="likes <= 0.022\ngini = 0.414\nsamples = 43\nvalue = [31, 1, 11]\nclass = comment", fillcolor="#e581399f"] ;
380 -> 394 ;
395 [label="gini = 0.5\nsamples = 8\nvalue = [4, 0, 4]\nclass = comment", fillcolor="#e5813900"] ;
394 -> 395 ;
396 [label="likes <= 0.023\ngini = 0.364\nsamples = 35\nvalue = [27, 1, 7]\nclass = comment", fillcolor="#e58139b6"] ;
394 -> 396 ;
397 [label="likes <= 0.022\ngini = 0.48\nsamples = 15\nvalue = [10, 1, 4]\nclass = comment", fillcolor="#e581398b"] ;
396 -> 397 ;
398 [label="gini = 0.0\nsamples = 2\nvalue = [2, 0, 0]\nclass = comment", fillcolor="#e58139ff"] ;
397 -> 398 ;
399 [label="likes <= 0.022\ngini = 0.521\nsamples = 13\nvalue = [8, 1, 4]\nclass = comment", fillcolor="#e5813971"] ;
397 -> 399 ;
400 [label="gini = 0.531\nsamples = 8\nvalue = [5, 1, 2]\nclass = comment", fillcolor="#e5813980"] ;
399 -> 400 ;
401 [label="gini = 0.48\nsamples = 5\nvalue = [3, 0, 2]\nclass = comment", fillcolor="#e5813955"] ;
399 -> 401 ;
402 [label="likes <= 0.023\ngini = 0.255\nsamples = 20\nvalue = [17, 0, 3]\nclass = comment", fillcolor="#e58139d2"] ;
396 -> 402 ;
403 [label="likes <= 0.023\ngini = 0.133\nsamples = 14\nvalue = [13, 0, 1]\nclass = comment", fillcolor="#e58139eb"] ;
402 -> 403 ;
404 [label="gini = 0.0\nsamples = 1\nvalue = [1, 0, 0]\nclass = comment", fillcolor="#e58139ff"] ;
403 -> 404 ;
405 [label="gini = 0.142\nsamples = 13\nvalue = [12, 0, 1]\nclass = comment", fillcolor="#e58139ea"] ;
403 -> 405 ;
406 [label="likes <= 0.023\ngini = 0.444\nsamples = 6\nvalue = [4, 0, 2]\nclass = comment", fillcolor="#e581397f"] ;
402 -> 406 ;
407 [label="gini = 0.0\nsamples = 1\nvalue = [0, 0, 1]\nclass = post", fillcolor="#8139e5ff"] ;
406 -> 407 ;
408 [label="gini = 0.32\nsamples = 5\nvalue = [4, 0, 1]\nclass = comment", fillcolor="#e58139bf"] ;
406 -> 408 ;
409 [label="gini = 0.0\nsamples = 12\nvalue = [12, 0, 0]\nclass = comment", fillcolor="#e58139ff"] ;
363 -> 409 ;
410 [label="likes <= 0.024\ngini = 0.454\nsamples = 23\nvalue = [15, 0, 8]\nclass = comment", fillcolor="#e5813977"] ;
362 -> 410 ;
411 [label="likes <= 0.023\ngini = 0.469\nsamples = 8\nvalue = [3, 0, 5]\nclass = post", fillcolor="#8139e566"] ;
410 -> 411 ;
412 [label="gini = 0.5\nsamples = 2\nvalue = [1, 0, 1]\nclass = comment", fillcolor="#e5813900"] ;
411 -> 412 ;
413 [label="gini = 0.444\nsamples = 6\nvalue = [2, 0, 4]\nclass = post", fillcolor="#8139e57f"] ;
411 -> 413 ;
414 [label="likes <= 0.024\ngini = 0.32\nsamples = 15\nvalue = [12, 0, 3]\nclass = comment", fillcolor="#e58139bf"] ;
410 -> 414 ;
415 [label="gini = 0.0\nsamples = 1\nvalue = [1, 0, 0]\nclass = comment", fillcolor="#e58139ff"] ;
414 -> 415 ;
416 [label="gini = 0.337\nsamples = 14\nvalue = [11, 0, 3]\nclass = comment", fillcolor="#e58139b9"] ;
414 -> 416 ;
417 [label="gini = 0.0\nsamples = 2\nvalue = [0, 0, 2]\nclass = post", fillcolor="#8139e5ff"] ;
123 -> 417 ;
418 [label="gini = 0.0\nsamples = 11\nvalue = [11, 0, 0]\nclass = comment", fillcolor="#e58139ff"] ;
122 -> 418 ;
419 [label="likes <= 0.026\ngini = 0.503\nsamples = 97\nvalue = [62, 7, 28]\nclass = comment", fillcolor="#e581397e"] ;
121 -> 419 ;
420 [label="likes <= 0.025\ngini = 0.494\nsamples = 18\nvalue = [8, 0, 10]\nclass = post", fillcolor="#8139e533"] ;
419 -> 420 ;
421 [label="likes <= 0.025\ngini = 0.463\nsamples = 11\nvalue = [7, 0, 4]\nclass = comment", fillcolor="#e581396d"] ;
420 -> 421 ;
422 [label="gini = 0.5\nsamples = 4\nvalue = [2, 0, 2]\nclass = comment", fillcolor="#e5813900"] ;
421 -> 422 ;
423 [label="gini = 0.408\nsamples = 7\nvalue = [5, 0, 2]\nclass = comment", fillcolor="#e5813999"] ;
421 -> 423 ;
424 [label="likes <= 0.025\ngini = 0.245\nsamples = 7\nvalue = [1, 0, 6]\nclass = post", fillcolor="#8139e5d4"] ;
420 -> 424 ;
425 [label="gini = 0.0\nsamples = 5\nvalue = [0, 0, 5]\nclass = post", fillcolor="#8139e5ff"] ;
424 -> 425 ;
426 [label="gini = 0.5\nsamples = 2\nvalue = [1, 0, 1]\nclass = comment", fillcolor="#e5813900"] ;
424 -> 426 ;
427 [label="likes <= 0.026\ngini = 0.473\nsamples = 79\nvalue = [54, 7, 18]\nclass = comment", fillcolor="#e5813996"] ;
419 -> 427 ;
428 [label="likes <= 0.026\ngini = 0.571\nsamples = 19\nvalue = [11, 3, 5]\nclass = comment", fillcolor="#e581396d"] ;
427 -> 428 ;
429 [label="gini = 0.529\nsamples = 11\nvalue = [7, 2, 2]\nclass = comment", fillcolor="#e581398e"] ;
428 -> 429 ;
430 [label="gini = 0.594\nsamples = 8\nvalue = [4, 1, 3]\nclass = comment", fillcolor="#e5813933"] ;
428 -> 430 ;
431 [label="likes <= 0.026\ngini = 0.435\nsamples = 60\nvalue = [43, 4, 13]\nclass = comment", fillcolor="#e58139a3"] ;
427 -> 431 ;
432 [label="likes <= 0.026\ngini = 0.355\nsamples = 19\nvalue = [15, 2, 2]\nclass = comment", fillcolor="#e58139c3"] ;
431 -> 432 ;
433 [label="gini = 0.0\nsamples = 3\nvalue = [3, 0, 0]\nclass = comment", fillcolor="#e58139ff"] ;
432 -> 433 ;
434 [label="gini = 0.406\nsamples = 16\nvalue = [12, 2, 2]\nclass = comment", fillcolor="#e58139b6"] ;
432 -> 434 ;
435 [label="likes <= 0.027\ngini = 0.459\nsamples = 41\nvalue = [28, 2, 11]\nclass = comment", fillcolor="#e5813990"] ;
431 -> 435 ;
436 [label="gini = 0.444\nsamples = 3\nvalue = [1, 0, 2]\nclass = post", fillcolor="#8139e57f"] ;
435 -> 436 ;
437 [label="likes <= 0.027\ngini = 0.436\nsamples = 38\nvalue = [27, 2, 9]\nclass = comment", fillcolor="#e581399e"] ;
435 -> 437 ;
438 [label="likes <= 0.027\ngini = 0.305\nsamples = 16\nvalue = [13, 0, 3]\nclass = comment", fillcolor="#e58139c4"] ;
437 -> 438 ;
439 [label="likes <= 0.027\ngini = 0.444\nsamples = 3\nvalue = [2, 0, 1]\nclass = comment", fillcolor="#e581397f"] ;
438 -> 439 ;
440 [label="gini = 0.0\nsamples = 1\nvalue = [1, 0, 0]\nclass = comment", fillcolor="#e58139ff"] ;
439 -> 440 ;
441 [label="gini = 0.5\nsamples = 2\nvalue = [1, 0, 1]\nclass = comment", fillcolor="#e5813900"] ;
439 -> 441 ;
442 [label="likes <= 0.027\ngini = 0.26\nsamples = 13\nvalue = [11, 0, 2]\nclass = comment", fillcolor="#e58139d1"] ;
438 -> 442 ;
443 [label="gini = 0.0\nsamples = 1\nvalue = [1, 0, 0]\nclass = comment", fillcolor="#e58139ff"] ;
442 -> 443 ;
444 [label="likes <= 0.027\ngini = 0.278\nsamples = 12\nvalue = [10, 0, 2]\nclass = comment", fillcolor="#e58139cc"] ;
442 -> 444 ;
445 [label="gini = 0.298\nsamples = 11\nvalue = [9, 0, 2]\nclass = comment", fillcolor="#e58139c6"] ;
444 -> 445 ;
446 [label="gini = 0.0\nsamples = 1\nvalue = [1, 0, 0]\nclass = comment", fillcolor="#e58139ff"] ;
444 -> 446 ;
447 [label="likes <= 0.028\ngini = 0.512\nsamples = 22\nvalue = [14, 2, 6]\nclass = comment", fillcolor="#e5813980"] ;
437 -> 447 ;
448 [label="likes <= 0.028\ngini = 0.57\nsamples = 16\nvalue = [9, 2, 5]\nclass = comment", fillcolor="#e581395d"] ;
447 -> 448 ;
449 [label="likes <= 0.028\ngini = 0.551\nsamples = 15\nvalue = [9, 2, 4]\nclass = comment", fillcolor="#e5813974"] ;
448 -> 449 ;
450 [label="gini = 0.444\nsamples = 6\nvalue = [4, 0, 2]\nclass = comment", fillcolor="#e581397f"] ;
449 -> 450 ;
451 [label="gini = 0.593\nsamples = 9\nvalue = [5, 2, 2]\nclass = comment", fillcolor="#e581396d"] ;
449 -> 451 ;
452 [label="gini = 0.0\nsamples = 1\nvalue = [0, 0, 1]\nclass = post", fillcolor="#8139e5ff"] ;
448 -> 452 ;
453 [label="gini = 0.278\nsamples = 6\nvalue = [5, 0, 1]\nclass = comment", fillcolor="#e58139cc"] ;
447 -> 453 ;
454 [label="gini = 0.0\nsamples = 1\nvalue = [0, 0, 1]\nclass = post", fillcolor="#8139e5ff"] ;
120 -> 454 ;
455 [label="likes <= 0.03\ngini = 0.372\nsamples = 189\nvalue = [145, 7, 37]\nclass = comment", fillcolor="#e58139b5"] ;
119 -> 455 ;
456 [label="likes <= 0.029\ngini = 0.227\nsamples = 32\nvalue = [28, 2, 2]\nclass = comment", fillcolor="#e58139dd"] ;
455 -> 456 ;
457 [label="likes <= 0.029\ngini = 0.278\nsamples = 12\nvalue = [10, 2, 0]\nclass = comment", fillcolor="#e58139cc"] ;
456 -> 457 ;
458 [label="gini = 0.18\nsamples = 10\nvalue = [9, 1, 0]\nclass = comment", fillcolor="#e58139e3"] ;
457 -> 458 ;
459 [label="gini = 0.5\nsamples = 2\nvalue = [1, 1, 0]\nclass = comment", fillcolor="#e5813900"] ;
457 -> 459 ;
460 [label="likes <= 0.029\ngini = 0.18\nsamples = 20\nvalue = [18, 0, 2]\nclass = comment", fillcolor="#e58139e3"] ;
456 -> 460 ;
461 [label="gini = 0.278\nsamples = 6\nvalue = [5, 0, 1]\nclass = comment", fillcolor="#e58139cc"] ;
460 -> 461 ;
462 [label="likes <= 0.029\ngini = 0.133\nsamples = 14\nvalue = [13, 0, 1]\nclass = comment", fillcolor="#e58139eb"] ;
460 -> 462 ;
463 [label="gini = 0.0\nsamples = 1\nvalue = [1, 0, 0]\nclass = comment", fillcolor="#e58139ff"] ;
462 -> 463 ;
464 [label="gini = 0.142\nsamples = 13\nvalue = [12, 0, 1]\nclass = comment", fillcolor="#e58139ea"] ;
462 -> 464 ;
465 [label="likes <= 0.031\ngini = 0.394\nsamples = 157\nvalue = [117, 5, 35]\nclass = comment", fillcolor="#e58139ab"] ;
455 -> 465 ;
466 [label="likes <= 0.03\ngini = 0.475\nsamples = 18\nvalue = [11, 0, 7]\nclass = comment", fillcolor="#e581395d"] ;
465 -> 466 ;
467 [label="likes <= 0.03\ngini = 0.494\nsamples = 9\nvalue = [5, 0, 4]\nclass = comment", fillcolor="#e5813933"] ;
466 -> 467 ;
468 [label="likes <= 0.03\ngini = 0.48\nsamples = 5\nvalue = [3, 0, 2]\nclass = comment", fillcolor="#e5813955"] ;
467 -> 468 ;
469 [label="gini = 0.5\nsamples = 2\nvalue = [1, 0, 1]\nclass = comment", fillcolor="#e5813900"] ;
468 -> 469 ;
470 [label="gini = 0.444\nsamples = 3\nvalue = [2, 0, 1]\nclass = comment", fillcolor="#e581397f"] ;
468 -> 470 ;
471 [label="likes <= 0.03\ngini = 0.5\nsamples = 4\nvalue = [2, 0, 2]\nclass = comment", fillcolor="#e5813900"] ;
467 -> 471 ;
472 [label="gini = 0.5\nsamples = 2\nvalue = [1, 0, 1]\nclass = comment", fillcolor="#e5813900"] ;
471 -> 472 ;
473 [label="gini = 0.5\nsamples = 2\nvalue = [1, 0, 1]\nclass = comment", fillcolor="#e5813900"] ;
471 -> 473 ;
474 [label="likes <= 0.03\ngini = 0.444\nsamples = 9\nvalue = [6, 0, 3]\nclass = comment", fillcolor="#e581397f"] ;
466 -> 474 ;
475 [label="gini = 0.444\nsamples = 3\nvalue = [2, 0, 1]\nclass = comment", fillcolor="#e581397f"] ;
474 -> 475 ;
476 [label="gini = 0.444\nsamples = 6\nvalue = [4, 0, 2]\nclass = comment", fillcolor="#e581397f"] ;
474 -> 476 ;
477 [label="likes <= 0.031\ngini = 0.377\nsamples = 139\nvalue = [106, 5, 28]\nclass = comment", fillcolor="#e58139b3"] ;
465 -> 477 ;
478 [label="gini = 0.0\nsamples = 7\nvalue = [7, 0, 0]\nclass = comment", fillcolor="#e58139ff"] ;
477 -> 478 ;
479 [label="likes <= 0.031\ngini = 0.391\nsamples = 132\nvalue = [99, 5, 28]\nclass = comment", fillcolor="#e58139ae"] ;
477 -> 479 ;
480 [label="gini = 0.0\nsamples = 1\nvalue = [0, 0, 1]\nclass = post", fillcolor="#8139e5ff"] ;
479 -> 480 ;
481 [label="likes <= 0.036\ngini = 0.385\nsamples = 131\nvalue = [99, 5, 27]\nclass = comment", fillcolor="#e58139b1"] ;
479 -> 481 ;
482 [label="likes <= 0.032\ngini = 0.376\nsamples = 127\nvalue = [97, 5, 25]\nclass = comment", fillcolor="#e58139b4"] ;
481 -> 482 ;
483 [label="likes <= 0.031\ngini = 0.208\nsamples = 17\nvalue = [15, 0, 2]\nclass = comment", fillcolor="#e58139dd"] ;
482 -> 483 ;
484 [label="gini = 0.26\nsamples = 13\nvalue = [11, 0, 2]\nclass = comment", fillcolor="#e58139d1"] ;
483 -> 484 ;
485 [label="gini = 0.0\nsamples = 4\nvalue = [4, 0, 0]\nclass = comment", fillcolor="#e58139ff"] ;
483 -> 485 ;
486 [label="likes <= 0.036\ngini = 0.399\nsamples = 110\nvalue = [82, 5, 23]\nclass = comment", fillcolor="#e58139ad"] ;
482 -> 486 ;
487 [label="likes <= 0.036\ngini = 0.419\nsamples = 99\nvalue = [72, 5, 22]\nclass = comment", fillcolor="#e58139a6"] ;
486 -> 487 ;
488 [label="likes <= 0.032\ngini = 0.412\nsamples = 98\nvalue = [72, 5, 21]\nclass = comment", fillcolor="#e58139a9"] ;
487 -> 488 ;
489 [label="likes <= 0.032\ngini = 0.571\nsamples = 7\nvalue = [4, 1, 2]\nclass = comment", fillcolor="#e5813966"] ;
488 -> 489 ;
490 [label="gini = 0.5\nsamples = 6\nvalue = [4, 1, 1]\nclass = comment", fillcolor="#e5813999"] ;
489 -> 490 ;
491 [label="gini = 0.0\nsamples = 1\nvalue = [0, 0, 1]\nclass = post", fillcolor="#8139e5ff"] ;
489 -> 491 ;
492 [label="likes <= 0.034\ngini = 0.396\nsamples = 91\nvalue = [68, 4, 19]\nclass = comment", fillcolor="#e58139ae"] ;
488 -> 492 ;
493 [label="likes <= 0.033\ngini = 0.346\nsamples = 43\nvalue = [34, 2, 7]\nclass = comment", fillcolor="#e58139bf"] ;
492 -> 493 ;
494 [label="likes <= 0.033\ngini = 0.405\nsamples = 23\nvalue = [17, 1, 5]\nclass = comment", fillcolor="#e58139aa"] ;
493 -> 494 ;
495 [label="likes <= 0.032\ngini = 0.305\nsamples = 16\nvalue = [13, 0, 3]\nclass = comment", fillcolor="#e58139c4"] ;
494 -> 495 ;
496 [label="gini = 0.32\nsamples = 15\nvalue = [12, 0, 3]\nclass = comment", fillcolor="#e58139bf"] ;
495 -> 496 ;
497 [label="gini = 0.0\nsamples = 1\nvalue = [1, 0, 0]\nclass = comment", fillcolor="#e58139ff"] ;
495 -> 497 ;
498 [label="likes <= 0.033\ngini = 0.571\nsamples = 7\nvalue = [4, 1, 2]\nclass = comment", fillcolor="#e5813966"] ;
494 -> 498 ;
499 [label="gini = 0.0\nsamples = 1\nvalue = [0, 0, 1]\nclass = post", fillcolor="#8139e5ff"] ;
498 -> 499 ;
500 [label="gini = 0.5\nsamples = 6\nvalue = [4, 1, 1]\nclass = comment", fillcolor="#e5813999"] ;
498 -> 500 ;
501 [label="likes <= 0.033\ngini = 0.265\nsamples = 20\nvalue = [17, 1, 2]\nclass = comment", fillcolor="#e58139d4"] ;
493 -> 501 ;
502 [label="gini = 0.0\nsamples = 4\nvalue = [4, 0, 0]\nclass = comment", fillcolor="#e58139ff"] ;
501 -> 502 ;
503 [label="likes <= 0.034\ngini = 0.32\nsamples = 16\nvalue = [13, 1, 2]\nclass = comment", fillcolor="#e58139c8"] ;
501 -> 503 ;
504 [label="gini = 0.338\nsamples = 15\nvalue = [12, 1, 2]\nclass = comment", fillcolor="#e58139c4"] ;
503 -> 504 ;
505 [label="gini = 0.0\nsamples = 1\nvalue = [1, 0, 0]\nclass = comment", fillcolor="#e58139ff"] ;
503 -> 505 ;
506 [label="likes <= 0.034\ngini = 0.434\nsamples = 48\nvalue = [34, 2, 12]\nclass = comment", fillcolor="#e581399c"] ;
492 -> 506 ;
507 [label="gini = 0.625\nsamples = 4\nvalue = [1, 1, 2]\nclass = post", fillcolor="#8139e555"] ;
506 -> 507 ;
508 [label="likes <= 0.035\ngini = 0.385\nsamples = 44\nvalue = [33, 1, 10]\nclass = comment", fillcolor="#e58139ac"] ;
506 -> 508 ;
509 [label="likes <= 0.035\ngini = 0.308\nsamples = 21\nvalue = [17, 0, 4]\nclass = comment", fillcolor="#e58139c3"] ;
508 -> 509 ;
510 [label="likes <= 0.034\ngini = 0.346\nsamples = 18\nvalue = [14, 0, 4]\nclass = comment", fillcolor="#e58139b6"] ;
509 -> 510 ;
511 [label="gini = 0.444\nsamples = 3\nvalue = [2, 0, 1]\nclass = comment", fillcolor="#e581397f"] ;
510 -> 511 ;
512 [label="likes <= 0.034\ngini = 0.32\nsamples = 15\nvalue = [12, 0, 3]\nclass = comment", fillcolor="#e58139bf"] ;
510 -> 512 ;
513 [label="gini = 0.0\nsamples = 2\nvalue = [2, 0, 0]\nclass = comment", fillcolor="#e58139ff"] ;
512 -> 513 ;
514 [label="gini = 0.355\nsamples = 13\nvalue = [10, 0, 3]\nclass = comment", fillcolor="#e58139b3"] ;
512 -> 514 ;
515 [label="gini = 0.0\nsamples = 3\nvalue = [3, 0, 0]\nclass = comment", fillcolor="#e58139ff"] ;
509 -> 515 ;
516 [label="likes <= 0.035\ngini = 0.446\nsamples = 23\nvalue = [16, 1, 6]\nclass = comment", fillcolor="#e5813996"] ;
508 -> 516 ;
517 [label="likes <= 0.035\ngini = 0.562\nsamples = 11\nvalue = [6, 1, 4]\nclass = comment", fillcolor="#e5813949"] ;
516 -> 517 ;
518 [label="likes <= 0.035\ngini = 0.408\nsamples = 7\nvalue = [5, 0, 2]\nclass = comment", fillcolor="#e5813999"] ;
517 -> 518 ;
519 [label="gini = 0.444\nsamples = 6\nvalue = [4, 0, 2]\nclass = comment", fillcolor="#e581397f"] ;
518 -> 519 ;
520 [label="gini = 0.0\nsamples = 1\nvalue = [1, 0, 0]\nclass = comment", fillcolor="#e58139ff"] ;
518 -> 520 ;
521 [label="gini = 0.625\nsamples = 4\nvalue = [1, 1, 2]\nclass = post", fillcolor="#8139e555"] ;
517 -> 521 ;
522 [label="likes <= 0.036\ngini = 0.278\nsamples = 12\nvalue = [10, 0, 2]\nclass = comment", fillcolor="#e58139cc"] ;
516 -> 522 ;
523 [label="gini = 0.0\nsamples = 1\nvalue = [1, 0, 0]\nclass = comment", fillcolor="#e58139ff"] ;
522 -> 523 ;
524 [label="gini = 0.298\nsamples = 11\nvalue = [9, 0, 2]\nclass = comment", fillcolor="#e58139c6"] ;
522 -> 524 ;
525 [label="gini = 0.0\nsamples = 1\nvalue = [0, 0, 1]\nclass = post", fillcolor="#8139e5ff"] ;
487 -> 525 ;
526 [label="likes <= 0.036\ngini = 0.165\nsamples = 11\nvalue = [10, 0, 1]\nclass = comment", fillcolor="#e58139e6"] ;
486 -> 526 ;
527 [label="gini = 0.0\nsamples = 1\nvalue = [1, 0, 0]\nclass = comment", fillcolor="#e58139ff"] ;
526 -> 527 ;
528 [label="gini = 0.18\nsamples = 10\nvalue = [9, 0, 1]\nclass = comment", fillcolor="#e58139e3"] ;
526 -> 528 ;
529 [label="likes <= 0.037\ngini = 0.5\nsamples = 4\nvalue = [2, 0, 2]\nclass = comment", fillcolor="#e5813900"] ;
481 -> 529 ;
530 [label="gini = 0.0\nsamples = 1\nvalue = [0, 0, 1]\nclass = post", fillcolor="#8139e5ff"] ;
529 -> 530 ;
531 [label="gini = 0.444\nsamples = 3\nvalue = [2, 0, 1]\nclass = comment", fillcolor="#e581397f"] ;
529 -> 531 ;
532 [label="numbers% <= 0.028\ngini = 0.444\nsamples = 15\nvalue = [5, 0, 10]\nclass = post", fillcolor="#8139e57f"] ;
92 -> 532 ;
533 [label="numbers% <= 0.016\ngini = 0.355\nsamples = 13\nvalue = [3, 0, 10]\nclass = post", fillcolor="#8139e5b3"] ;
532 -> 533 ;
534 [label="numbers% <= 0.011\ngini = 0.444\nsamples = 9\nvalue = [3, 0, 6]\nclass = post", fillcolor="#8139e57f"] ;
533 -> 534 ;
535 [label="gini = 0.0\nsamples = 3\nvalue = [0, 0, 3]\nclass = post", fillcolor="#8139e5ff"] ;
534 -> 535 ;
536 [label="numbers% <= 0.013\ngini = 0.5\nsamples = 6\nvalue = [3, 0, 3]\nclass = comment", fillcolor="#e5813900"] ;
534 -> 536 ;
537 [label="gini = 0.0\nsamples = 2\nvalue = [2, 0, 0]\nclass = comment", fillcolor="#e58139ff"] ;
536 -> 537 ;
538 [label="numbers% <= 0.015\ngini = 0.375\nsamples = 4\nvalue = [1, 0, 3]\nclass = post", fillcolor="#8139e5aa"] ;
536 -> 538 ;
539 [label="gini = 0.0\nsamples = 3\nvalue = [0, 0, 3]\nclass = post", fillcolor="#8139e5ff"] ;
538 -> 539 ;
540 [label="gini = 0.0\nsamples = 1\nvalue = [1, 0, 0]\nclass = comment", fillcolor="#e58139ff"] ;
538 -> 540 ;
541 [label="gini = 0.0\nsamples = 4\nvalue = [0, 0, 4]\nclass = post", fillcolor="#8139e5ff"] ;
533 -> 541 ;
542 [label="gini = 0.0\nsamples = 2\nvalue = [2, 0, 0]\nclass = comment", fillcolor="#e58139ff"] ;
532 -> 542 ;
543 [label="gini = 0.0\nsamples = 14\nvalue = [14, 0, 0]\nclass = comment", fillcolor="#e58139ff"] ;
9 -> 543 ;
544 [label="likes <= 0.038\ngini = 0.465\nsamples = 68\nvalue = [43, 0, 25]\nclass = comment", fillcolor="#e581396b"] ;
8 -> 544 ;
545 [label="gini = 0.0\nsamples = 2\nvalue = [0, 0, 2]\nclass = post", fillcolor="#8139e5ff"] ;
544 -> 545 ;
546 [label="likes <= 0.041\ngini = 0.454\nsamples = 66\nvalue = [43, 0, 23]\nclass = comment", fillcolor="#e5813977"] ;
544 -> 546 ;
547 [label="likes <= 0.04\ngini = 0.448\nsamples = 65\nvalue = [43, 0, 22]\nclass = comment", fillcolor="#e581397d"] ;
546 -> 547 ;
548 [label="likes <= 0.039\ngini = 0.472\nsamples = 42\nvalue = [26, 0, 16]\nclass = comment", fillcolor="#e5813962"] ;
547 -> 548 ;
549 [label="likes <= 0.039\ngini = 0.431\nsamples = 35\nvalue = [24, 0, 11]\nclass = comment", fillcolor="#e581398a"] ;
548 -> 549 ;
550 [label="likes <= 0.039\ngini = 0.453\nsamples = 26\nvalue = [17, 0, 9]\nclass = comment", fillcolor="#e5813978"] ;
549 -> 550 ;
551 [label="likes <= 0.038\ngini = 0.435\nsamples = 25\nvalue = [17, 0, 8]\nclass = comment", fillcolor="#e5813987"] ;
550 -> 551 ;
552 [label="gini = 0.0\nsamples = 1\nvalue = [1, 0, 0]\nclass = comment", fillcolor="#e58139ff"] ;
551 -> 552 ;
553 [label="likes <= 0.038\ngini = 0.444\nsamples = 24\nvalue = [16, 0, 8]\nclass = comment", fillcolor="#e581397f"] ;
551 -> 553 ;
554 [label="likes <= 0.038\ngini = 0.469\nsamples = 8\nvalue = [5, 0, 3]\nclass = comment", fillcolor="#e5813966"] ;
553 -> 554 ;
555 [label="gini = 0.444\nsamples = 6\nvalue = [4, 0, 2]\nclass = comment", fillcolor="#e581397f"] ;
554 -> 555 ;
556 [label="gini = 0.5\nsamples = 2\nvalue = [1, 0, 1]\nclass = comment", fillcolor="#e5813900"] ;
554 -> 556 ;
557 [label="likes <= 0.038\ngini = 0.43\nsamples = 16\nvalue = [11, 0, 5]\nclass = comment", fillcolor="#e581398b"] ;
553 -> 557 ;
558 [label="gini = 0.0\nsamples = 1\nvalue = [1, 0, 0]\nclass = comment", fillcolor="#e58139ff"] ;
557 -> 558 ;
559 [label="gini = 0.444\nsamples = 15\nvalue = [10, 0, 5]\nclass = comment", fillcolor="#e581397f"] ;
557 -> 559 ;
560 [label="gini = 0.0\nsamples = 1\nvalue = [0, 0, 1]\nclass = post", fillcolor="#8139e5ff"] ;
550 -> 560 ;
561 [label="likes <= 0.039\ngini = 0.346\nsamples = 9\nvalue = [7, 0, 2]\nclass = comment", fillcolor="#e58139b6"] ;
549 -> 561 ;
562 [label="gini = 0.0\nsamples = 1\nvalue = [1, 0, 0]\nclass = comment", fillcolor="#e58139ff"] ;
561 -> 562 ;
563 [label="likes <= 0.039\ngini = 0.375\nsamples = 8\nvalue = [6, 0, 2]\nclass = comment", fillcolor="#e58139aa"] ;
561 -> 563 ;
564 [label="gini = 0.408\nsamples = 7\nvalue = [5, 0, 2]\nclass = comment", fillcolor="#e5813999"] ;
563 -> 564 ;
565 [label="gini = 0.0\nsamples = 1\nvalue = [1, 0, 0]\nclass = comment", fillcolor="#e58139ff"] ;
563 -> 565 ;
566 [label="likes <= 0.04\ngini = 0.408\nsamples = 7\nvalue = [2, 0, 5]\nclass = post", fillcolor="#8139e599"] ;
548 -> 566 ;
567 [label="gini = 0.375\nsamples = 4\nvalue = [1, 0, 3]\nclass = post", fillcolor="#8139e5aa"] ;
566 -> 567 ;
568 [label="gini = 0.444\nsamples = 3\nvalue = [1, 0, 2]\nclass = post", fillcolor="#8139e57f"] ;
566 -> 568 ;
569 [label="likes <= 0.04\ngini = 0.386\nsamples = 23\nvalue = [17, 0, 6]\nclass = comment", fillcolor="#e58139a5"] ;
547 -> 569 ;
570 [label="likes <= 0.04\ngini = 0.219\nsamples = 8\nvalue = [7, 0, 1]\nclass = comment", fillcolor="#e58139db"] ;
569 -> 570 ;
571 [label="gini = 0.245\nsamples = 7\nvalue = [6, 0, 1]\nclass = comment", fillcolor="#e58139d4"] ;
570 -> 571 ;
572 [label="gini = 0.0\nsamples = 1\nvalue = [1, 0, 0]\nclass = comment", fillcolor="#e58139ff"] ;
570 -> 572 ;
573 [label="likes <= 0.041\ngini = 0.444\nsamples = 15\nvalue = [10, 0, 5]\nclass = comment", fillcolor="#e581397f"] ;
569 -> 573 ;
574 [label="likes <= 0.041\ngini = 0.426\nsamples = 13\nvalue = [9, 0, 4]\nclass = comment", fillcolor="#e581398e"] ;
573 -> 574 ;
575 [label="likes <= 0.04\ngini = 0.444\nsamples = 12\nvalue = [8, 0, 4]\nclass = comment", fillcolor="#e581397f"] ;
574 -> 575 ;
576 [label="gini = 0.48\nsamples = 5\nvalue = [3, 0, 2]\nclass = comment", fillcolor="#e5813955"] ;
575 -> 576 ;
577 [label="likes <= 0.041\ngini = 0.408\nsamples = 7\nvalue = [5, 0, 2]\nclass = comment", fillcolor="#e5813999"] ;
575 -> 577 ;
578 [label="gini = 0.0\nsamples = 1\nvalue = [1, 0, 0]\nclass = comment", fillcolor="#e58139ff"] ;
577 -> 578 ;
579 [label="gini = 0.444\nsamples = 6\nvalue = [4, 0, 2]\nclass = comment", fillcolor="#e581397f"] ;
577 -> 579 ;
580 [label="gini = 0.0\nsamples = 1\nvalue = [1, 0, 0]\nclass = comment", fillcolor="#e58139ff"] ;
574 -> 580 ;
581 [label="gini = 0.5\nsamples = 2\nvalue = [1, 0, 1]\nclass = comment", fillcolor="#e5813900"] ;
573 -> 581 ;
582 [label="gini = 0.0\nsamples = 1\nvalue = [0, 0, 1]\nclass = post", fillcolor="#8139e5ff"] ;
546 -> 582 ;
583 [label="likes <= 0.042\ngini = 0.279\nsamples = 55\nvalue = [46, 1, 8]\nclass = comment", fillcolor="#e58139ce"] ;
7 -> 583 ;
584 [label="likes <= 0.042\ngini = 0.091\nsamples = 21\nvalue = [20, 0, 1]\nclass = comment", fillcolor="#e58139f2"] ;
583 -> 584 ;
585 [label="numbers_count <= 0.5\ngini = 0.095\nsamples = 20\nvalue = [19, 0, 1]\nclass = comment", fillcolor="#e58139f2"] ;
584 -> 585 ;
586 [label="gini = 0.1\nsamples = 19\nvalue = [18, 0, 1]\nclass = comment", fillcolor="#e58139f1"] ;
585 -> 586 ;
587 [label="gini = 0.0\nsamples = 1\nvalue = [1, 0, 0]\nclass = comment", fillcolor="#e58139ff"] ;
585 -> 587 ;
588 [label="gini = 0.0\nsamples = 1\nvalue = [1, 0, 0]\nclass = comment", fillcolor="#e58139ff"] ;
584 -> 588 ;
589 [label="likes <= 0.042\ngini = 0.372\nsamples = 34\nvalue = [26, 1, 7]\nclass = comment", fillcolor="#e58139b3"] ;
583 -> 589 ;
590 [label="gini = 0.0\nsamples = 1\nvalue = [0, 0, 1]\nclass = post", fillcolor="#8139e5ff"] ;
589 -> 590 ;
591 [label="likes <= 0.043\ngini = 0.345\nsamples = 33\nvalue = [26, 1, 6]\nclass = comment", fillcolor="#e58139bd"] ;
589 -> 591 ;
592 [label="likes <= 0.043\ngini = 0.388\nsamples = 19\nvalue = [14, 0, 5]\nclass = comment", fillcolor="#e58139a4"] ;
591 -> 592 ;
593 [label="likes <= 0.042\ngini = 0.346\nsamples = 18\nvalue = [14, 0, 4]\nclass = comment", fillcolor="#e58139b6"] ;
592 -> 593 ;
594 [label="gini = 0.444\nsamples = 3\nvalue = [2, 0, 1]\nclass = comment", fillcolor="#e581397f"] ;
593 -> 594 ;
595 [label="likes <= 0.043\ngini = 0.32\nsamples = 15\nvalue = [12, 0, 3]\nclass = comment", fillcolor="#e58139bf"] ;
593 -> 595 ;
596 [label="likes <= 0.043\ngini = 0.298\nsamples = 11\nvalue = [9, 0, 2]\nclass = comment", fillcolor="#e58139c6"] ;
595 -> 596 ;
597 [label="gini = 0.346\nsamples = 9\nvalue = [7, 0, 2]\nclass = comment", fillcolor="#e58139b6"] ;
596 -> 597 ;
598 [label="gini = 0.0\nsamples = 2\nvalue = [2, 0, 0]\nclass = comment", fillcolor="#e58139ff"] ;
596 -> 598 ;
599 [label="gini = 0.375\nsamples = 4\nvalue = [3, 0, 1]\nclass = comment", fillcolor="#e58139aa"] ;
595 -> 599 ;
600 [label="gini = 0.0\nsamples = 1\nvalue = [0, 0, 1]\nclass = post", fillcolor="#8139e5ff"] ;
592 -> 600 ;
601 [label="gini = 0.255\nsamples = 14\nvalue = [12, 1, 1]\nclass = comment", fillcolor="#e58139d8"] ;
591 -> 601 ;
602 [label="likes <= 0.044\ngini = 0.549\nsamples = 18\nvalue = [9, 1, 8]\nclass = comment", fillcolor="#e581391a"] ;
6 -> 602 ;
603 [label="likes <= 0.044\ngini = 0.375\nsamples = 4\nvalue = [1, 0, 3]\nclass = post", fillcolor="#8139e5aa"] ;
602 -> 603 ;
604 [label="gini = 0.0\nsamples = 1\nvalue = [0, 0, 1]\nclass = post", fillcolor="#8139e5ff"] ;
603 -> 604 ;
605 [label="gini = 0.444\nsamples = 3\nvalue = [1, 0, 2]\nclass = post", fillcolor="#8139e57f"] ;
603 -> 605 ;
606 [label="likes <= 0.044\ngini = 0.541\nsamples = 14\nvalue = [8, 1, 5]\nclass = comment", fillcolor="#e5813955"] ;
602 -> 606 ;
607 [label="gini = 0.444\nsamples = 3\nvalue = [2, 0, 1]\nclass = comment", fillcolor="#e581397f"] ;
606 -> 607 ;
608 [label="gini = 0.562\nsamples = 11\nvalue = [6, 1, 4]\nclass = comment", fillcolor="#e5813949"] ;
606 -> 608 ;
609 [label="numbers% <= 0.013\ngini = 0.477\nsamples = 585\nvalue = [403, 88, 94]\nclass = comment", fillcolor="#e58139a0"] ;
5 -> 609 ;
610 [label="likes <= 0.012\ngini = 0.421\nsamples = 278\nvalue = [195, 82, 1]\nclass = comment", fillcolor="#e5813993"] ;
609 -> 610 ;
611 [label="numbers% <= 0.008\ngini = 0.087\nsamples = 22\nvalue = [21, 0, 1]\nclass = comment", fillcolor="#e58139f3"] ;
610 -> 611 ;
612 [label="numbers% <= 0.008\ngini = 0.219\nsamples = 8\nvalue = [7, 0, 1]\nclass = comment", fillcolor="#e58139db"] ;
611 -> 612 ;
613 [label="gini = 0.0\nsamples = 7\nvalue = [7, 0, 0]\nclass = comment", fillcolor="#e58139ff"] ;
612 -> 613 ;
614 [label="gini = 0.0\nsamples = 1\nvalue = [0, 0, 1]\nclass = post", fillcolor="#8139e5ff"] ;
612 -> 614 ;
615 [label="gini = 0.0\nsamples = 14\nvalue = [14, 0, 0]\nclass = comment", fillcolor="#e58139ff"] ;
611 -> 615 ;
616 [label="likes <= 0.018\ngini = 0.435\nsamples = 256\nvalue = [174, 82, 0]\nclass = comment", fillcolor="#e5813987"] ;
610 -> 616 ;
617 [label="likes <= 0.015\ngini = 0.426\nsamples = 13\nvalue = [4, 9, 0]\nclass = comment_to_comment", fillcolor="#39e5818e"] ;
616 -> 617 ;
618 [label="gini = 0.0\nsamples = 4\nvalue = [0, 4, 0]\nclass = comment_to_comment", fillcolor="#39e581ff"] ;
617 -> 618 ;
619 [label="likes <= 0.017\ngini = 0.494\nsamples = 9\nvalue = [4, 5, 0]\nclass = comment_to_comment", fillcolor="#39e58133"] ;
617 -> 619 ;
620 [label="likes <= 0.016\ngini = 0.444\nsamples = 6\nvalue = [4, 2, 0]\nclass = comment", fillcolor="#e581397f"] ;
619 -> 620 ;
621 [label="numbers% <= 0.004\ngini = 0.5\nsamples = 4\nvalue = [2, 2, 0]\nclass = comment", fillcolor="#e5813900"] ;
620 -> 621 ;
622 [label="gini = 0.0\nsamples = 1\nvalue = [0, 1, 0]\nclass = comment_to_comment", fillcolor="#39e581ff"] ;
621 -> 622 ;
623 [label="numbers% <= 0.004\ngini = 0.444\nsamples = 3\nvalue = [2, 1, 0]\nclass = comment", fillcolor="#e581397f"] ;
621 -> 623 ;
624 [label="gini = 0.0\nsamples = 2\nvalue = [2, 0, 0]\nclass = comment", fillcolor="#e58139ff"] ;
623 -> 624 ;
625 [label="gini = 0.0\nsamples = 1\nvalue = [0, 1, 0]\nclass = comment_to_comment", fillcolor="#39e581ff"] ;
623 -> 625 ;
626 [label="gini = 0.0\nsamples = 2\nvalue = [2, 0, 0]\nclass = comment", fillcolor="#e58139ff"] ;
620 -> 626 ;
627 [label="gini = 0.0\nsamples = 3\nvalue = [0, 3, 0]\nclass = comment_to_comment", fillcolor="#39e581ff"] ;
619 -> 627 ;
628 [label="likes <= 0.043\ngini = 0.42\nsamples = 243\nvalue = [170, 73, 0]\nclass = comment", fillcolor="#e5813992"] ;
616 -> 628 ;
629 [label="numbers% <= 0.007\ngini = 0.436\nsamples = 218\nvalue = [148, 70, 0]\nclass = comment", fillcolor="#e5813986"] ;
628 -> 629 ;
630 [label="numbers% <= 0.006\ngini = 0.343\nsamples = 82\nvalue = [64, 18, 0]\nclass = comment", fillcolor="#e58139b7"] ;
629 -> 630 ;
631 [label="likes <= 0.038\ngini = 0.428\nsamples = 58\nvalue = [40, 18, 0]\nclass = comment", fillcolor="#e581398c"] ;
630 -> 631 ;
632 [label="likes <= 0.027\ngini = 0.397\nsamples = 55\nvalue = [40, 15, 0]\nclass = comment", fillcolor="#e581399f"] ;
631 -> 632 ;
633 [label="numbers% <= 0.006\ngini = 0.43\nsamples = 48\nvalue = [33, 15, 0]\nclass = comment", fillcolor="#e581398b"] ;
632 -> 633 ;
634 [label="numbers% <= 0.005\ngini = 0.405\nsamples = 46\nvalue = [33, 13, 0]\nclass = comment", fillcolor="#e581399b"] ;
633 -> 634 ;
635 [label="numbers% <= 0.004\ngini = 0.459\nsamples = 28\nvalue = [18, 10, 0]\nclass = comment", fillcolor="#e5813971"] ;
634 -> 635 ;
636 [label="likes <= 0.021\ngini = 0.278\nsamples = 12\nvalue = [10, 2, 0]\nclass = comment", fillcolor="#e58139cc"] ;
635 -> 636 ;
637 [label="gini = 0.0\nsamples = 9\nvalue = [9, 0, 0]\nclass = comment", fillcolor="#e58139ff"] ;
636 -> 637 ;
638 [label="numbers% <= 0.004\ngini = 0.444\nsamples = 3\nvalue = [1, 2, 0]\nclass = comment_to_comment", fillcolor="#39e5817f"] ;
636 -> 638 ;
639 [label="gini = 0.0\nsamples = 2\nvalue = [0, 2, 0]\nclass = comment_to_comment", fillcolor="#39e581ff"] ;
638 -> 639 ;
640 [label="gini = 0.0\nsamples = 1\nvalue = [1, 0, 0]\nclass = comment", fillcolor="#e58139ff"] ;
638 -> 640 ;
641 [label="numbers% <= 0.004\ngini = 0.5\nsamples = 16\nvalue = [8, 8, 0]\nclass = comment", fillcolor="#e5813900"] ;
635 -> 641 ;
642 [label="gini = 0.0\nsamples = 2\nvalue = [0, 2, 0]\nclass = comment_to_comment", fillcolor="#39e581ff"] ;
641 -> 642 ;
643 [label="numbers% <= 0.004\ngini = 0.49\nsamples = 14\nvalue = [8, 6, 0]\nclass = comment", fillcolor="#e5813940"] ;
641 -> 643 ;
644 [label="gini = 0.0\nsamples = 2\nvalue = [2, 0, 0]\nclass = comment", fillcolor="#e58139ff"] ;
643 -> 644 ;
645 [label="numbers% <= 0.004\ngini = 0.5\nsamples = 12\nvalue = [6, 6, 0]\nclass = comment", fillcolor="#e5813900"] ;
643 -> 645 ;
646 [label="gini = 0.0\nsamples = 1\nvalue = [0, 1, 0]\nclass = comment_to_comment", fillcolor="#39e581ff"] ;
645 -> 646 ;
647 [label="likes <= 0.023\ngini = 0.496\nsamples = 11\nvalue = [6, 5, 0]\nclass = comment", fillcolor="#e581392a"] ;
645 -> 647 ;
648 [label="numbers% <= 0.005\ngini = 0.48\nsamples = 10\nvalue = [6, 4, 0]\nclass = comment", fillcolor="#e5813955"] ;
647 -> 648 ;
649 [label="numbers% <= 0.005\ngini = 0.408\nsamples = 7\nvalue = [5, 2, 0]\nclass = comment", fillcolor="#e5813999"] ;
648 -> 649 ;
650 [label="likes <= 0.02\ngini = 0.5\nsamples = 4\nvalue = [2, 2, 0]\nclass = comment", fillcolor="#e5813900"] ;
649 -> 650 ;
651 [label="gini = 0.0\nsamples = 1\nvalue = [1, 0, 0]\nclass = comment", fillcolor="#e58139ff"] ;
650 -> 651 ;
652 [label="likes <= 0.02\ngini = 0.444\nsamples = 3\nvalue = [1, 2, 0]\nclass = comment_to_comment", fillcolor="#39e5817f"] ;
650 -> 652 ;
653 [label="gini = 0.0\nsamples = 1\nvalue = [0, 1, 0]\nclass = comment_to_comment", fillcolor="#39e581ff"] ;
652 -> 653 ;
654 [label="numbers% <= 0.005\ngini = 0.5\nsamples = 2\nvalue = [1, 1, 0]\nclass = comment", fillcolor="#e5813900"] ;
652 -> 654 ;
655 [label="gini = 0.0\nsamples = 1\nvalue = [1, 0, 0]\nclass = comment", fillcolor="#e58139ff"] ;
654 -> 655 ;
656 [label="gini = 0.0\nsamples = 1\nvalue = [0, 1, 0]\nclass = comment_to_comment", fillcolor="#39e581ff"] ;
654 -> 656 ;
657 [label="gini = 0.0\nsamples = 3\nvalue = [3, 0, 0]\nclass = comment", fillcolor="#e58139ff"] ;
649 -> 657 ;
658 [label="numbers% <= 0.005\ngini = 0.444\nsamples = 3\nvalue = [1, 2, 0]\nclass = comment_to_comment", fillcolor="#39e5817f"] ;
648 -> 658 ;
659 [label="gini = 0.0\nsamples = 1\nvalue = [0, 1, 0]\nclass = comment_to_comment", fillcolor="#39e581ff"] ;
658 -> 659 ;
660 [label="gini = 0.5\nsamples = 2\nvalue = [1, 1, 0]\nclass = comment", fillcolor="#e5813900"] ;
658 -> 660 ;
661 [label="gini = 0.0\nsamples = 1\nvalue = [0, 1, 0]\nclass = comment_to_comment", fillcolor="#39e581ff"] ;
647 -> 661 ;
662 [label="likes <= 0.019\ngini = 0.278\nsamples = 18\nvalue = [15, 3, 0]\nclass = comment", fillcolor="#e58139cc"] ;
634 -> 662 ;
663 [label="gini = 0.0\nsamples = 1\nvalue = [0, 1, 0]\nclass = comment_to_comment", fillcolor="#39e581ff"] ;
662 -> 663 ;
664 [label="numbers% <= 0.006\ngini = 0.208\nsamples = 17\nvalue = [15, 2, 0]\nclass = comment", fillcolor="#e58139dd"] ;
662 -> 664 ;
665 [label="likes <= 0.023\ngini = 0.124\nsamples = 15\nvalue = [14, 1, 0]\nclass = comment", fillcolor="#e58139ed"] ;
664 -> 665 ;
666 [label="gini = 0.0\nsamples = 9\nvalue = [9, 0, 0]\nclass = comment", fillcolor="#e58139ff"] ;
665 -> 666 ;
667 [label="likes <= 0.023\ngini = 0.278\nsamples = 6\nvalue = [5, 1, 0]\nclass = comment", fillcolor="#e58139cc"] ;
665 -> 667 ;
668 [label="gini = 0.0\nsamples = 1\nvalue = [0, 1, 0]\nclass = comment_to_comment", fillcolor="#39e581ff"] ;
667 -> 668 ;
669 [label="gini = 0.0\nsamples = 5\nvalue = [5, 0, 0]\nclass = comment", fillcolor="#e58139ff"] ;
667 -> 669 ;
670 [label="likes <= 0.021\ngini = 0.5\nsamples = 2\nvalue = [1, 1, 0]\nclass = comment", fillcolor="#e5813900"] ;
664 -> 670 ;
671 [label="gini = 0.0\nsamples = 1\nvalue = [1, 0, 0]\nclass = comment", fillcolor="#e58139ff"] ;
670 -> 671 ;
672 [label="gini = 0.0\nsamples = 1\nvalue = [0, 1, 0]\nclass = comment_to_comment", fillcolor="#39e581ff"] ;
670 -> 672 ;
673 [label="gini = 0.0\nsamples = 2\nvalue = [0, 2, 0]\nclass = comment_to_comment", fillcolor="#39e581ff"] ;
633 -> 673 ;
674 [label="gini = 0.0\nsamples = 7\nvalue = [7, 0, 0]\nclass = comment", fillcolor="#e58139ff"] ;
632 -> 674 ;
675 [label="gini = 0.0\nsamples = 3\nvalue = [0, 3, 0]\nclass = comment_to_comment", fillcolor="#39e581ff"] ;
631 -> 675 ;
676 [label="gini = 0.0\nsamples = 24\nvalue = [24, 0, 0]\nclass = comment", fillcolor="#e58139ff"] ;
630 -> 676 ;
677 [label="numbers% <= 0.007\ngini = 0.472\nsamples = 136\nvalue = [84, 52, 0]\nclass = comment", fillcolor="#e5813961"] ;
629 -> 677 ;
678 [label="numbers% <= 0.007\ngini = 0.459\nsamples = 14\nvalue = [5, 9, 0]\nclass = comment_to_comment", fillcolor="#39e58171"] ;
677 -> 678 ;
679 [label="numbers% <= 0.007\ngini = 0.494\nsamples = 9\nvalue = [5, 4, 0]\nclass = comment", fillcolor="#e5813933"] ;
678 -> 679 ;
680 [label="numbers% <= 0.007\ngini = 0.444\nsamples = 6\nvalue = [2, 4, 0]\nclass = comment_to_comment", fillcolor="#39e5817f"] ;
679 -> 680 ;
681 [label="gini = 0.0\nsamples = 1\nvalue = [0, 1, 0]\nclass = comment_to_comment", fillcolor="#39e581ff"] ;
680 -> 681 ;
682 [label="likes <= 0.031\ngini = 0.48\nsamples = 5\nvalue = [2, 3, 0]\nclass = comment_to_comment", fillcolor="#39e58155"] ;
680 -> 682 ;
683 [label="gini = 0.0\nsamples = 1\nvalue = [1, 0, 0]\nclass = comment", fillcolor="#e58139ff"] ;
682 -> 683 ;
684 [label="numbers% <= 0.007\ngini = 0.375\nsamples = 4\nvalue = [1, 3, 0]\nclass = comment_to_comment", fillcolor="#39e581aa"] ;
682 -> 684 ;
685 [label="gini = 0.0\nsamples = 2\nvalue = [0, 2, 0]\nclass = comment_to_comment", fillcolor="#39e581ff"] ;
684 -> 685 ;
686 [label="gini = 0.5\nsamples = 2\nvalue = [1, 1, 0]\nclass = comment", fillcolor="#e5813900"] ;
684 -> 686 ;
687 [label="gini = 0.0\nsamples = 3\nvalue = [3, 0, 0]\nclass = comment", fillcolor="#e58139ff"] ;
679 -> 687 ;
688 [label="gini = 0.0\nsamples = 5\nvalue = [0, 5, 0]\nclass = comment_to_comment", fillcolor="#39e581ff"] ;
678 -> 688 ;
689 [label="numbers% <= 0.007\ngini = 0.456\nsamples = 122\nvalue = [79, 43, 0]\nclass = comment", fillcolor="#e5813974"] ;
677 -> 689 ;
690 [label="gini = 0.0\nsamples = 5\nvalue = [5, 0, 0]\nclass = comment", fillcolor="#e58139ff"] ;
689 -> 690 ;
691 [label="numbers% <= 0.01\ngini = 0.465\nsamples = 117\nvalue = [74, 43, 0]\nclass = comment", fillcolor="#e581396b"] ;
689 -> 691 ;
692 [label="numbers% <= 0.009\ngini = 0.48\nsamples = 95\nvalue = [57, 38, 0]\nclass = comment", fillcolor="#e5813955"] ;
691 -> 692 ;
693 [label="likes <= 0.036\ngini = 0.458\nsamples = 76\nvalue = [49, 27, 0]\nclass = comment", fillcolor="#e5813972"] ;
692 -> 693 ;
694 [label="likes <= 0.032\ngini = 0.498\nsamples = 34\nvalue = [18, 16, 0]\nclass = comment", fillcolor="#e581391c"] ;
693 -> 694 ;
695 [label="likes <= 0.027\ngini = 0.397\nsamples = 11\nvalue = [8, 3, 0]\nclass = comment", fillcolor="#e581399f"] ;
694 -> 695 ;
696 [label="numbers% <= 0.008\ngini = 0.444\nsamples = 3\nvalue = [1, 2, 0]\nclass = comment_to_comment", fillcolor="#39e5817f"] ;
695 -> 696 ;
697 [label="gini = 0.0\nsamples = 2\nvalue = [0, 2, 0]\nclass = comment_to_comment", fillcolor="#39e581ff"] ;
696 -> 697 ;
698 [label="gini = 0.0\nsamples = 1\nvalue = [1, 0, 0]\nclass = comment", fillcolor="#e58139ff"] ;
696 -> 698 ;
699 [label="likes <= 0.031\ngini = 0.219\nsamples = 8\nvalue = [7, 1, 0]\nclass = comment", fillcolor="#e58139db"] ;
695 -> 699 ;
700 [label="gini = 0.0\nsamples = 4\nvalue = [4, 0, 0]\nclass = comment", fillcolor="#e58139ff"] ;
699 -> 700 ;
701 [label="likes <= 0.032\ngini = 0.375\nsamples = 4\nvalue = [3, 1, 0]\nclass = comment", fillcolor="#e58139aa"] ;
699 -> 701 ;
702 [label="gini = 0.0\nsamples = 1\nvalue = [0, 1, 0]\nclass = comment_to_comment", fillcolor="#39e581ff"] ;
701 -> 702 ;
703 [label="gini = 0.0\nsamples = 3\nvalue = [3, 0, 0]\nclass = comment", fillcolor="#e58139ff"] ;
701 -> 703 ;
704 [label="numbers% <= 0.009\ngini = 0.491\nsamples = 23\nvalue = [10, 13, 0]\nclass = comment_to_comment", fillcolor="#39e5813b"] ;
694 -> 704 ;
705 [label="likes <= 0.034\ngini = 0.465\nsamples = 19\nvalue = [7, 12, 0]\nclass = comment_to_comment", fillcolor="#39e5816a"] ;
704 -> 705 ;
706 [label="likes <= 0.033\ngini = 0.5\nsamples = 12\nvalue = [6, 6, 0]\nclass = comment", fillcolor="#e5813900"] ;
705 -> 706 ;
707 [label="likes <= 0.032\ngini = 0.32\nsamples = 5\nvalue = [1, 4, 0]\nclass = comment_to_comment", fillcolor="#39e581bf"] ;
706 -> 707 ;
708 [label="gini = 0.5\nsamples = 2\nvalue = [1, 1, 0]\nclass = comment", fillcolor="#e5813900"] ;
707 -> 708 ;
709 [label="gini = 0.0\nsamples = 3\nvalue = [0, 3, 0]\nclass = comment_to_comment", fillcolor="#39e581ff"] ;
707 -> 709 ;
710 [label="numbers% <= 0.008\ngini = 0.408\nsamples = 7\nvalue = [5, 2, 0]\nclass = comment", fillcolor="#e5813999"] ;
706 -> 710 ;
711 [label="numbers% <= 0.007\ngini = 0.48\nsamples = 5\nvalue = [3, 2, 0]\nclass = comment", fillcolor="#e5813955"] ;
710 -> 711 ;
712 [label="gini = 0.0\nsamples = 1\nvalue = [1, 0, 0]\nclass = comment", fillcolor="#e58139ff"] ;
711 -> 712 ;
713 [label="numbers% <= 0.007\ngini = 0.5\nsamples = 4\nvalue = [2, 2, 0]\nclass = comment", fillcolor="#e5813900"] ;
711 -> 713 ;
714 [label="gini = 0.5\nsamples = 2\nvalue = [1, 1, 0]\nclass = comment", fillcolor="#e5813900"] ;
713 -> 714 ;
715 [label="gini = 0.5\nsamples = 2\nvalue = [1, 1, 0]\nclass = comment", fillcolor="#e5813900"] ;
713 -> 715 ;
716 [label="gini = 0.0\nsamples = 2\nvalue = [2, 0, 0]\nclass = comment", fillcolor="#e58139ff"] ;
710 -> 716 ;
717 [label="likes <= 0.035\ngini = 0.245\nsamples = 7\nvalue = [1, 6, 0]\nclass = comment_to_comment", fillcolor="#39e581d4"] ;
705 -> 717 ;
718 [label="gini = 0.0\nsamples = 4\nvalue = [0, 4, 0]\nclass = comment_to_comment", fillcolor="#39e581ff"] ;
717 -> 718 ;
719 [label="numbers% <= 0.008\ngini = 0.444\nsamples = 3\nvalue = [1, 2, 0]\nclass = comment_to_comment", fillcolor="#39e5817f"] ;
717 -> 719 ;
720 [label="gini = 0.0\nsamples = 1\nvalue = [1, 0, 0]\nclass = comment", fillcolor="#e58139ff"] ;
719 -> 720 ;
721 [label="gini = 0.0\nsamples = 2\nvalue = [0, 2, 0]\nclass = comment_to_comment", fillcolor="#39e581ff"] ;
719 -> 721 ;
722 [label="numbers% <= 0.009\ngini = 0.375\nsamples = 4\nvalue = [3, 1, 0]\nclass = comment", fillcolor="#e58139aa"] ;
704 -> 722 ;
723 [label="gini = 0.0\nsamples = 2\nvalue = [2, 0, 0]\nclass = comment", fillcolor="#e58139ff"] ;
722 -> 723 ;
724 [label="gini = 0.5\nsamples = 2\nvalue = [1, 1, 0]\nclass = comment", fillcolor="#e5813900"] ;
722 -> 724 ;
725 [label="likes <= 0.038\ngini = 0.387\nsamples = 42\nvalue = [31, 11, 0]\nclass = comment", fillcolor="#e58139a5"] ;
693 -> 725 ;
726 [label="numbers% <= 0.008\ngini = 0.117\nsamples = 16\nvalue = [15, 1, 0]\nclass = comment", fillcolor="#e58139ee"] ;
725 -> 726 ;
727 [label="numbers% <= 0.008\ngini = 0.375\nsamples = 4\nvalue = [3, 1, 0]\nclass = comment", fillcolor="#e58139aa"] ;
726 -> 727 ;
728 [label="gini = 0.0\nsamples = 1\nvalue = [1, 0, 0]\nclass = comment", fillcolor="#e58139ff"] ;
727 -> 728 ;
729 [label="gini = 0.444\nsamples = 3\nvalue = [2, 1, 0]\nclass = comment", fillcolor="#e581397f"] ;
727 -> 729 ;
730 [label="gini = 0.0\nsamples = 12\nvalue = [12, 0, 0]\nclass = comment", fillcolor="#e58139ff"] ;
726 -> 730 ;
731 [label="likes <= 0.04\ngini = 0.473\nsamples = 26\nvalue = [16, 10, 0]\nclass = comment", fillcolor="#e5813960"] ;
725 -> 731 ;
732 [label="likes <= 0.039\ngini = 0.497\nsamples = 13\nvalue = [6, 7, 0]\nclass = comment_to_comment", fillcolor="#39e58124"] ;
731 -> 732 ;
733 [label="likes <= 0.038\ngini = 0.496\nsamples = 11\nvalue = [6, 5, 0]\nclass = comment", fillcolor="#e581392a"] ;
732 -> 733 ;
734 [label="gini = 0.0\nsamples = 1\nvalue = [0, 1, 0]\nclass = comment_to_comment", fillcolor="#39e581ff"] ;
733 -> 734 ;
735 [label="numbers% <= 0.009\ngini = 0.48\nsamples = 10\nvalue = [6, 4, 0]\nclass = comment", fillcolor="#e5813955"] ;
733 -> 735 ;
736 [label="gini = 0.0\nsamples = 2\nvalue = [2, 0, 0]\nclass = comment", fillcolor="#e58139ff"] ;
735 -> 736 ;
737 [label="likes <= 0.039\ngini = 0.5\nsamples = 8\nvalue = [4, 4, 0]\nclass = comment", fillcolor="#e5813900"] ;
735 -> 737 ;
738 [label="gini = 0.0\nsamples = 1\nvalue = [0, 1, 0]\nclass = comment_to_comment", fillcolor="#39e581ff"] ;
737 -> 738 ;
739 [label="numbers% <= 0.009\ngini = 0.49\nsamples = 7\nvalue = [4, 3, 0]\nclass = comment", fillcolor="#e5813940"] ;
737 -> 739 ;
740 [label="gini = 0.0\nsamples = 1\nvalue = [1, 0, 0]\nclass = comment", fillcolor="#e58139ff"] ;
739 -> 740 ;
741 [label="likes <= 0.039\ngini = 0.5\nsamples = 6\nvalue = [3, 3, 0]\nclass = comment", fillcolor="#e5813900"] ;
739 -> 741 ;
742 [label="gini = 0.5\nsamples = 4\nvalue = [2, 2, 0]\nclass = comment", fillcolor="#e5813900"] ;
741 -> 742 ;
743 [label="gini = 0.5\nsamples = 2\nvalue = [1, 1, 0]\nclass = comment", fillcolor="#e5813900"] ;
741 -> 743 ;
744 [label="gini = 0.0\nsamples = 2\nvalue = [0, 2, 0]\nclass = comment_to_comment", fillcolor="#39e581ff"] ;
732 -> 744 ;
745 [label="numbers% <= 0.009\ngini = 0.355\nsamples = 13\nvalue = [10, 3, 0]\nclass = comment", fillcolor="#e58139b3"] ;
731 -> 745 ;
746 [label="gini = 0.0\nsamples = 6\nvalue = [6, 0, 0]\nclass = comment", fillcolor="#e58139ff"] ;
745 -> 746 ;
747 [label="likes <= 0.041\ngini = 0.49\nsamples = 7\nvalue = [4, 3, 0]\nclass = comment", fillcolor="#e5813940"] ;
745 -> 747 ;
748 [label="numbers% <= 0.009\ngini = 0.5\nsamples = 6\nvalue = [3, 3, 0]\nclass = comment", fillcolor="#e5813900"] ;
747 -> 748 ;
749 [label="numbers% <= 0.009\ngini = 0.48\nsamples = 5\nvalue = [3, 2, 0]\nclass = comment", fillcolor="#e5813955"] ;
748 -> 749 ;
750 [label="gini = 0.444\nsamples = 3\nvalue = [2, 1, 0]\nclass = comment", fillcolor="#e581397f"] ;
749 -> 750 ;
751 [label="gini = 0.5\nsamples = 2\nvalue = [1, 1, 0]\nclass = comment", fillcolor="#e5813900"] ;
749 -> 751 ;
752 [label="gini = 0.0\nsamples = 1\nvalue = [0, 1, 0]\nclass = comment_to_comment", fillcolor="#39e581ff"] ;
748 -> 752 ;
753 [label="gini = 0.0\nsamples = 1\nvalue = [1, 0, 0]\nclass = comment", fillcolor="#e58139ff"] ;
747 -> 753 ;
754 [label="likes <= 0.041\ngini = 0.488\nsamples = 19\nvalue = [8, 11, 0]\nclass = comment_to_comment", fillcolor="#39e58146"] ;
692 -> 754 ;
755 [label="likes <= 0.028\ngini = 0.444\nsamples = 15\nvalue = [5, 10, 0]\nclass = comment_to_comment", fillcolor="#39e5817f"] ;
754 -> 755 ;
756 [label="gini = 0.0\nsamples = 1\nvalue = [1, 0, 0]\nclass = comment", fillcolor="#e58139ff"] ;
755 -> 756 ;
757 [label="numbers% <= 0.009\ngini = 0.408\nsamples = 14\nvalue = [4, 10, 0]\nclass = comment_to_comment", fillcolor="#39e58199"] ;
755 -> 757 ;
758 [label="gini = 0.0\nsamples = 3\nvalue = [0, 3, 0]\nclass = comment_to_comment", fillcolor="#39e581ff"] ;
757 -> 758 ;
759 [label="likes <= 0.032\ngini = 0.463\nsamples = 11\nvalue = [4, 7, 0]\nclass = comment_to_comment", fillcolor="#39e5816d"] ;
757 -> 759 ;
760 [label="gini = 0.0\nsamples = 2\nvalue = [0, 2, 0]\nclass = comment_to_comment", fillcolor="#39e581ff"] ;
759 -> 760 ;
761 [label="likes <= 0.036\ngini = 0.494\nsamples = 9\nvalue = [4, 5, 0]\nclass = comment_to_comment", fillcolor="#39e58133"] ;
759 -> 761 ;
762 [label="gini = 0.0\nsamples = 1\nvalue = [1, 0, 0]\nclass = comment", fillcolor="#e58139ff"] ;
761 -> 762 ;
763 [label="numbers% <= 0.01\ngini = 0.469\nsamples = 8\nvalue = [3, 5, 0]\nclass = comment_to_comment", fillcolor="#39e58166"] ;
761 -> 763 ;
764 [label="numbers% <= 0.01\ngini = 0.49\nsamples = 7\nvalue = [3, 4, 0]\nclass = comment_to_comment", fillcolor="#39e58140"] ;
763 -> 764 ;
765 [label="numbers% <= 0.01\ngini = 0.444\nsamples = 6\nvalue = [2, 4, 0]\nclass = comment_to_comment", fillcolor="#39e5817f"] ;
764 -> 765 ;
766 [label="likes <= 0.038\ngini = 0.48\nsamples = 5\nvalue = [2, 3, 0]\nclass = comment_to_comment", fillcolor="#39e58155"] ;
765 -> 766 ;
767 [label="gini = 0.5\nsamples = 2\nvalue = [1, 1, 0]\nclass = comment", fillcolor="#e5813900"] ;
766 -> 767 ;
768 [label="likes <= 0.039\ngini = 0.444\nsamples = 3\nvalue = [1, 2, 0]\nclass = comment_to_comment", fillcolor="#39e5817f"] ;
766 -> 768 ;
769 [label="gini = 0.0\nsamples = 1\nvalue = [0, 1, 0]\nclass = comment_to_comment", fillcolor="#39e581ff"] ;
768 -> 769 ;
770 [label="gini = 0.5\nsamples = 2\nvalue = [1, 1, 0]\nclass = comment", fillcolor="#e5813900"] ;
768 -> 770 ;
771 [label="gini = 0.0\nsamples = 1\nvalue = [0, 1, 0]\nclass = comment_to_comment", fillcolor="#39e581ff"] ;
765 -> 771 ;
772 [label="gini = 0.0\nsamples = 1\nvalue = [1, 0, 0]\nclass = comment", fillcolor="#e58139ff"] ;
764 -> 772 ;
773 [label="gini = 0.0\nsamples = 1\nvalue = [0, 1, 0]\nclass = comment_to_comment", fillcolor="#39e581ff"] ;
763 -> 773 ;
774 [label="numbers% <= 0.01\ngini = 0.375\nsamples = 4\nvalue = [3, 1, 0]\nclass = comment", fillcolor="#e58139aa"] ;
754 -> 774 ;
775 [label="gini = 0.0\nsamples = 1\nvalue = [1, 0, 0]\nclass = comment", fillcolor="#e58139ff"] ;
774 -> 775 ;
776 [label="gini = 0.444\nsamples = 3\nvalue = [2, 1, 0]\nclass = comment", fillcolor="#e581397f"] ;
774 -> 776 ;
777 [label="likes <= 0.039\ngini = 0.351\nsamples = 22\nvalue = [17, 5, 0]\nclass = comment", fillcolor="#e58139b4"] ;
691 -> 777 ;
778 [label="numbers% <= 0.011\ngini = 0.153\nsamples = 12\nvalue = [11, 1, 0]\nclass = comment", fillcolor="#e58139e8"] ;
777 -> 778 ;
779 [label="gini = 0.0\nsamples = 7\nvalue = [7, 0, 0]\nclass = comment", fillcolor="#e58139ff"] ;
778 -> 779 ;
780 [label="likes <= 0.035\ngini = 0.32\nsamples = 5\nvalue = [4, 1, 0]\nclass = comment", fillcolor="#e58139bf"] ;
778 -> 780 ;
781 [label="gini = 0.0\nsamples = 1\nvalue = [0, 1, 0]\nclass = comment_to_comment", fillcolor="#39e581ff"] ;
780 -> 781 ;
782 [label="gini = 0.0\nsamples = 4\nvalue = [4, 0, 0]\nclass = comment", fillcolor="#e58139ff"] ;
780 -> 782 ;
783 [label="numbers% <= 0.011\ngini = 0.48\nsamples = 10\nvalue = [6, 4, 0]\nclass = comment", fillcolor="#e5813955"] ;
777 -> 783 ;
784 [label="likes <= 0.042\ngini = 0.32\nsamples = 5\nvalue = [4, 1, 0]\nclass = comment", fillcolor="#e58139bf"] ;
783 -> 784 ;
785 [label="gini = 0.0\nsamples = 2\nvalue = [2, 0, 0]\nclass = comment", fillcolor="#e58139ff"] ;
784 -> 785 ;
786 [label="likes <= 0.042\ngini = 0.444\nsamples = 3\nvalue = [2, 1, 0]\nclass = comment", fillcolor="#e581397f"] ;
784 -> 786 ;
787 [label="gini = 0.5\nsamples = 2\nvalue = [1, 1, 0]\nclass = comment", fillcolor="#e5813900"] ;
786 -> 787 ;
788 [label="gini = 0.0\nsamples = 1\nvalue = [1, 0, 0]\nclass = comment", fillcolor="#e58139ff"] ;
786 -> 788 ;
789 [label="likes <= 0.042\ngini = 0.48\nsamples = 5\nvalue = [2, 3, 0]\nclass = comment_to_comment", fillcolor="#39e58155"] ;
783 -> 789 ;
790 [label="gini = 0.0\nsamples = 2\nvalue = [0, 2, 0]\nclass = comment_to_comment", fillcolor="#39e581ff"] ;
789 -> 790 ;
791 [label="numbers% <= 0.012\ngini = 0.444\nsamples = 3\nvalue = [2, 1, 0]\nclass = comment", fillcolor="#e581397f"] ;
789 -> 791 ;
792 [label="gini = 0.5\nsamples = 2\nvalue = [1, 1, 0]\nclass = comment", fillcolor="#e5813900"] ;
791 -> 792 ;
793 [label="gini = 0.0\nsamples = 1\nvalue = [1, 0, 0]\nclass = comment", fillcolor="#e58139ff"] ;
791 -> 793 ;
794 [label="likes <= 0.044\ngini = 0.211\nsamples = 25\nvalue = [22, 3, 0]\nclass = comment", fillcolor="#e58139dc"] ;
628 -> 794 ;
795 [label="numbers% <= 0.01\ngini = 0.153\nsamples = 24\nvalue = [22, 2, 0]\nclass = comment", fillcolor="#e58139e8"] ;
794 -> 795 ;
796 [label="numbers% <= 0.01\ngini = 0.32\nsamples = 5\nvalue = [4, 1, 0]\nclass = comment", fillcolor="#e58139bf"] ;
795 -> 796 ;
797 [label="gini = 0.0\nsamples = 4\nvalue = [4, 0, 0]\nclass = comment", fillcolor="#e58139ff"] ;
796 -> 797 ;
798 [label="gini = 0.0\nsamples = 1\nvalue = [0, 1, 0]\nclass = comment_to_comment", fillcolor="#39e581ff"] ;
796 -> 798 ;
